0.192487
0.0890345
0.043873
0.0191417
-0.565479
-0.0327941
0.171729
-0.378363
-0.184288
0.0908611
-0.224445
-0.40456
-0.328185
-0.292709
-0.44428
-0.0992779
0.255246
0.271
-0.574025
0.277596
-0.0179181
-0.150889
-0.191479
0.359062
-0.108308
-0.375819
-0.548003
0.283257
-0.582107
-0.0704891
-0.228204
-0.259201
0.30805
-0.0740984
-0.221826
0.360928
-0.506512
0.173098
0.121888
0.27204
-0.427743
-0.528754
0.0291626
0.251063
0.00701242
0.032552
0.0812455
0.347734
0.288592
-0.281067
-0.136228
-0.187016
-0.0808321
-0.0513413
0.20737
-0.177968
0.230054
-0.263036
-0.131612
-0.0311245
-0.119522
-0.291531
-0.397188
-0.461098
0.0130539
0.166858
-0.498894
-0.0460402
-0.0413432
0.362747
0.12082
-0.00783585
0.230045
-0.0344889
0.152208
-0.392507
-0.320507
0.150729
-0.440935
-0.429091
-0.26473
-0.446563
-0.058842
-0.498299
0.133803
0.333258
-0.305605
-0.316724
-0.200952
0.352527
0.211609
-0.337301
0.164299
-0.164393
-0.19095
-0.0828782
-0.372079
0.0615302
0.302856
0.0357994
0.384364
-0.0357509
-0.349062
0.332741
-0.151838
-0.400267
0.036382
-0.248612
-0.0200077
0.0106214
0.326118
-0.422383
-0.374269
-0.248155
0.00866801
-0.376459
0.105591
-0.0166049
0.223489
-0.307197
-0.0918956
-0.159358
-0.401811
-0.48003
0.314975
-0.0908033
-0.336435
0.397479
-0.150343
-0.439474
0.262749
-0.606445
-0.446209
-0.510084
-0.166063
-0.333885
-0.419313
0.191711
-0.139182
-0.169733
-0.149151
0.191602
0.270921
0.0263394
-0.294763
0.0608007
0.356751
-0.324748
0.252639
-0.158196
-0.0843287
0.00662061
0.207261
0.217592
-0.0259222
0.354682
0.0298241
-0.140706
0.214535
0.0484409
0.0444265
0.423811
0.408949
0.19559
-0.271827
-0.0614157
-0.0820144
-0.462856
-0.158608
-0.00338247
0.244922
-0.178901
0.159987
0.247947
0.107232
0.235996
0.112504
0.18344
-0.555211
0.298391
-0.059709
-0.112512
-0.490906
0.131031
-0.0576607
0.0718891
0.123453
-0.358942
0.330634
0.27941
0.280439
-0.0186836
-0.438628
-0.13035
0.387594
-0.356816
-0.12484
-0.23011
-0.0471336
0.289084
-0.136028
-0.0887155
0.224056
-0.186875
-0.294838
0.449348
-0.389714
0.0620839
0.0446462
-0.553497
-0.564748
0.165302
0.113583
-0.235098
-0.176402
0.137105
0.142051
-0.367743
0.278126
0.162849
0.248201
-0.50386
-0.481295
0.185509
0.0782993
-0.320392
-0.338405
-0.458115
-0.172799
0.394679
0.389606
-0.156572
-0.261908
0.115765
-0.290335
0.193127
0.206976
-0.131848
-0.259289
-0.357044
-0.545909
-0.357183
0.404006
-0.305988
0.269924
-0.386725
-0.171445
0.0286879
-0.414964
0.204339
-0.404983
0.405988
-0.293234
-0.312695
-0.465192
-0.31829
0.0385541
0.117878
0.170412
0.0815091
0.1443
0.108027
0.0432919
-0.531965
-0.00783779
-0.365794
-0.271751
0.0912067
-0.45944
0.13532
-0.0495499
-0.0120761
0.0118442
-0.234508
0.0894771
-0.412293
-0.437134
-0.143324
0.226326
0.205815
-0.0586569
0.154637
-0.271484
-0.460494
-0.109954
-0.35977
-0.0493106
-0.106443
-0.215918
-0.296248
-0.246397
-0.211096
-0.134599
-0.0824762
-0.205955
-0.301433
-0.518007
-0.275955
-0.342016
0.0562802
0.0454579
-0.0872215
0.125119
0.0776624
0.333158
-0.208514
0.287299
-0.283483
-0.159558
-0.0924081
0.0400013
-0.20548
-0.00837237
0.334591
-0.429358
0.0551034
-0.237886
-0.0476208
-0.0787796
0.179542
-0.567319
-0.34079
0.0268366
-0.0729586
0.298801
-0.333748
0.0599729
-0.634711
0.353054
0.142674
-0.0499973
0.319071
-0.446333
-0.275562
0.249428
0.210722
-0.0178203
0.120615
0.23128
0.419305
0.114173
-0.236952
0.230262
-0.344956
-0.491321
0.017426
-0.434532
-0.386459
0.311236
0.236363
0.183678
-0.0816107
-0.505822
0.0880872
0.0306357
-0.385785
0.0182368
-0.0951643
-0.258436
-0.104649
0.115937
0.0990016
0.16254
0.0246963
-0.176808
0.233181
-0.132705
0.128228
-0.172285
-0.450904
-0.366648
0.00335782
0.299342
-0.284401
-0.443569
-0.459814
-0.277242
0.174683
-0.188842
-0.471066
-0.0248466
-0.0748007
0.0522436
-0.0542134
-0.325088
-0.266895
0.179576
0.118633
0.0294854
0.216361
-0.129819
-0.37874
0.390775
0.0429137
-0.466726
0.350069
-0.446509
-0.10992
-0.053395
0.0440774
0.2879
0.155133
-0.0370669
-0.414845
-0.333356
0.409915
-0.355294
-0.138855
0.128854
-0.0192428
-0.387617
-0.00352466
0.400951
-0.262096
0.176012
0.316589
-0.348452
-0.368123
-0.177854
0.293743
0.442896
-0.243639
0.206382
0.102239
-0.124662
-0.317295
0.0193186
-0.454708
-0.273137
-0.349888
0.0665711
-0.488735
-0.29166
0.0236961
-0.133281
-0.465832
0.107819
-0.128936
0.331843
-0.370518
0.417675
-0.45351
-0.445108
-0.0343093
0.179762
0.335961
-0.236865
-0.165213
0.276167
-0.0324727
0.186554
0.106606
0.100565
0.169188
-0.536729
-0.276814
-0.32508
0.0192351
0.148932
0.0931188
-0.181672
-0.347698
-0.325285
0.0342433
-0.378667
0.235537
-0.407161
-0.397017
0.199388
-0.398908
0.317766
-0.0751959
0.00135842
0.357262
-0.541407
0.056226
0.139036
-0.0994965
-0.459846
-0.116451
-0.0166729
0.0981313
-0.483887
-0.159094
0.366106
-0.132916
-0.182629
-0.123274
0.129332
-0.358744
-0.505229
-0.124335
0.191622
0.363174
-0.355275
-0.546161
-0.473026
-0.1766
-0.415603
-0.124848
-0.522968
0.164769
-0.305613
-0.260944
-0.315394
0.0336691
-0.0411487
0.228002
0.065074
0.116653
0.0194242
-0.245995
0.311887
0.00892292
-0.205316
-0.130655
-0.234182
-0.27306
-0.397083
-0.525055
-0.254352
-0.140949
-0.32143
-0.484825
-0.377511
0.126381
-0.13919
0.0276028
0.215243
-0.404506
0.0583065
-0.381191
-0.337844
-0.583859
-0.22722
-0.435036
0.0857947
-0.0786847
-0.541825
-0.316499
0.032469
-0.268135
-0.485742
0.238738
-0.471157
0.157948
0.282796
-0.428698
-0.0941947
-0.482302
-0.290967
-0.268006
-0.138765
0.139216
0.175635
0.0518334
-0.231857
0.144536
0.0443782
-0.559647
-0.552839
-0.478814
0.089353
-0.470389
-0.100131
0.335205
-0.326502
-0.371766
-0.447834
0.0744728
0.0658102
-0.081269
-0.321854
0.271989
-0.0967435
-0.31549
-0.300847
0.0262845
0.0450655
0.291304
0.445478
-0.0347309
-0.346205
-0.00943565
-0.454001
0.263546
0.0922579
0.319472
-0.12007
-0.19247
0.0605531
-0.00628227
-0.0770128
0.407117
0.39266
0.264824
0.37843
-0.0676909
-0.264447
0.523725
0.103101
0.0581606
0.39024
0.213495
0.351244
0.0435096
0.093811
-0.302733
0.45471
0.251056
-0.316788
-0.428976
-0.13934
-0.211512
-0.349782
0.0242531
-0.369738
0.0685955
0.33155
-0.0934225
0.135959
0.159083
0.274384
-0.453797
-0.204967
0.134964
-0.129
-0.468205
-0.385994
0.34957
-0.207356
-0.117555
-0.0103754
-0.284779
-0.41766
0.189747
0.251191
0.189938
-0.364956
0.146179
0.361925
0.406882
-0.149565
0.032223
0.228863
0.361348
0.0297773
0.187486
-0.0380051
0.0045441
-0.391903
0.406846
0.033969
-0.196955
-0.0267237
-0.176517
-0.0213831
-0.481494
-0.0967578
-0.121101
-0.00736163
-0.195111
-0.083083
-0.0588861
-0.198922
-0.479995
-0.170924
0.056676
-0.559819
-0.582465
-0.124478
-0.251873
-0.549196
-0.372416
-0.539349
-0.220931
0.00856536
-0.0383457
0.0558978
0.31074
0.188823
-0.11539
-0.170751
-0.0259305
0.0137459
-0.174594
-0.136344
-0.0687264
0.0807767
-0.110321
-0.35754
0.0376166
-0.299192
0.0892971
-0.111432
0.32349
-0.339866
-0.179808
-0.077815
0.126467
0.207029
-0.00292392
0.151946
-0.0597568
-0.354843
-0.43088
0.27925
-0.325512
0.0167375
-0.618826
0.248286
-0.31494
0.215411
-0.3067
0.284907
-0.181385
-0.501295
-0.234708
0.0371376
-0.202744
-0.490953
0.0934574
-0.486128
-0.1937
-0.337218
-0.370124
0.0593131
-0.316123
-0.346692
-0.587135
-0.0952691
-0.158101
-0.426013
-0.534643
0.280901
0.194264
-0.121139
-0.128213
0.239737
-0.372323
-0.365946
-0.4229
-0.356639
-0.0852373
-0.117781
0.323242
-0.0862023
-0.157021
0.0563721
-0.262955
-0.471512
0.248721
0.302015
0.33798
0.378765
0.234748
-0.403493
-0.0171656
-0.509335
0.145728
-0.0776972
0.303398
-0.262716
0.340143
0.0367677
-0.131057
0.20477
-0.101786
0.286257
-0.176575
0.0528399
0.167501
0.327282
-0.234753
-0.40629
0.166944
0.167786
0.271001
-0.455853
0.115381
0.323347
-0.148194
-0.385877
-0.375991
-0.185404
-0.453693
0.0445034
-0.0326394
0.197917
0.292909
0.213549
0.134103
0.291135
0.292099
-0.0914682
-0.430801
-0.133483
-0.155807
0.137016
-0.384206
-0.426079
-0.426561
-0.00892636
0.123117
-0.306804
-0.143179
0.386126
0.0929547
0.181202
0.364059
-0.155303
0.26427
0.226504
-0.107687
-0.415899
-0.0182631
-0.0326745
-0.0284266
-0.00978019
-0.136197
0.231719
-0.192323
-0.0526338
-0.47656
-0.512024
-0.00780168
-0.355941
-0.449456
0.0119781
-0.0917601
-0.455195
-0.497653
-0.529805
-0.526639
-0.535175
-0.24246
-0.480548
-0.213056
-0.439647
-0.574296
-0.0852938
-0.47869
-0.549364
-0.431871
-0.21552
-0.16164
-0.255172
-0.301446
-0.0914401
-0.262711
-0.583704
-0.823496
-0.549035
-0.444399
-0.239147
-0.100106
-0.177124
-0.652992
-0.471243
-0.454997
-0.591278
-0.313792
-0.466463
-0.503144
-0.118171
-0.175881
-0.571376
-0.593367
-0.459545
-0.713858
-0.328887
-0.348487
-0.427653
-0.212519
-0.336096
-0.509444
-0.377927
-0.802379
-0.0699867
-0.728532
-0.460254
-0.424049
-0.252527
-0.358568
-0.362713
-0.660109
0.107366
-0.249183
-0.577327
-0.481961
-0.451177
0.0632126
-0.00760304
-0.0686841
-0.170814
-0.174364
-0.114197
-0.508824
-0.305064
-0.219805
0.0208929
-0.0370419
0.197807
0.235736
0.110847
-0.0600287
0.184369
0.604552
0.238686
0.049548
0.343623
0.322458
0.472934
0.33024
0.237008
0.566934
0.343543
0.49438
0.503795
0.0702872
-0.00104265
0.182473
0.770682
0.420763
0.647082
0.867093
0.125692
0.371699
0.038904
0.791561
0.479431
0.348202
0.707654
0.611977
0.85097
0.43208
0.354829
0.462382
0.711558
0.428051
0.441443
0.57982
0.30397
0.554355
0.348379
0.356083
0.39592
0.58552
0.246733
0.279615
0.548976
0.683131
0.195734
0.456692
0.225009
0.299307
0.758965
0.414068
0.443903
0.501479
0.572729
0.0796261
0.313416
0.183278
0.257148
0.200866
0.504015
0.119425
0.275017
0.765245
0.410483
0.379646
0.180571
-0.0544732
0.149222
-0.1572
0.210135
0.208755
0.134576
0.107823
-0.271495
0.0121839
-0.570908
-1.43706
-0.0521744
0.00607524
-0.52913
0.0708249
-0.424375
-0.309512
-0.513296
-0.512311
0.207884
0.312145
-0.0895669
-0.544388
-0.000682719
-0.171779
-0.128189
0.219936
-0.181131
-0.0095658
-0.42611
-0.231543
-0.321838
0.190083
-0.355791
0.237063
-0.117911
-0.478692
0.25862
0.161608
-0.470729
-0.658775
0.127482
-0.555512
0.207606
0.022715
-0.0882102
-0.406219
-0.416632
0.184029
-0.132006
0.0526202
-0.209249
-0.181059
-0.448659
0.270329
0.0269915
-0.304981
-0.252992
-0.1881
0.119112
-0.351139
-0.465089
0.0780506
-0.0286435
-0.348581
0.197796
-0.537753
-0.52783
-0.336261
-0.168071
0.128832
-0.031136
-0.00906134
-0.157311
-0.219162
-0.383938
-0.372978
-0.407282
-0.369206
0.0465259
-0.254149
0.184227
0.0193645
-0.225356
-0.18383
0.0717025
0.194781
0.153771
0.126423
-0.315036
-0.312636
-0.440974
0.0983568
-0.350803
0.432957
0.252662
-0.27681
-0.254194
-0.0262342
0.290812
-0.254471
0.0232951
-0.397786
0.409127
-0.287214
-0.133577
0.112572
0.427219
-0.181958
-0.252219
-0.100233
-0.0098916
-0.279299
0.526059
0.259884
0.203053
0.0936618
-0.119075
0.445881
-0.239006
-0.246473
0.326602
0.225422
-0.37565
0.328254
-0.321855
0.40701
0.15376
-0.262353
-0.0992158
-0.237851
-0.153131
-0.272132
0.478987
0.259957
-0.0364133
0.282992
0.3794
0.382456
-0.300773
-0.0800371
0.419949
-0.178895
-0.147757
-0.382552
0.0862114
0.224293
0.315186
-0.084829
0.330551
0.119185
-0.0469415
-0.0912791
-0.117034
-0.171494
0.320691
0.0919478
0.258478
-0.297734
0.234825
-0.162105
0.0766135
0.409531
-0.192557
0.0224955
-0.390885
-0.162652
-0.416882
-0.183841
-0.308446
-0.271764
0.267458
-0.35566
0.327656
0.155452
-0.300986
-0.345756
0.119943
-0.478705
0.282229
-0.389944
-0.426482
0.256653
0.381039
-0.512599
-0.493886
0.249043
-0.419022
0.23837
-0.35176
-0.182676
0.0318386
0.08186
-0.514567
0.389326
0.229372
-0.138512
-0.51816
-0.466823
0.359968
0.265323
0.081099
0.255656
-0.328763
0.15006
0.0328844
-0.362415
-0.336374
-0.558673
-0.0979174
-0.190314
0.357657
-0.525413
-0.031422
-0.197047
0.251192
0.21772
0.0472095
-0.268048
0.0511418
0.0714291
0.072452
-0.296628
-0.505879
0.351622
-0.362537
0.0658509
-0.012338
-0.224576
-0.439015
-0.12225
-0.397004
-0.00975732
-0.041386
-0.0909513
0.292648
-0.479413
-0.208803
-0.472326
-0.272781
0.288303
0.345024
0.221198
0.350095
0.245264
0.231279
0.247962
-0.127406
0.0481286
0.091059
0.20863
-0.0682788
-0.383047
-0.182984
0.342302
-0.105723
-0.208873
-0.106955
-0.326499
0.260619
0.355762
-0.459616
-0.15094
0.0793021
-0.287212
-0.210234
0.125785
-0.555382
-0.301419
-0.417279
0.171392
-0.342236
0.098158
-0.179706
0.150014
0.121677
-0.0188837
-0.019908
0.172179
-0.595227
0.0472579
-0.25844
-0.116019
-0.117127
-0.0987626
-0.276699
0.212764
-0.465658
-0.221382
-0.23343
0.227089
-0.52401
-0.145147
0.134125
-0.333642
0.340771
0.40405
0.371274
0.119255
-0.231122
0.205734
-0.3871
-0.0150961
-0.0827496
-0.374117
-0.355934
-0.00589883
-0.0887097
0.140529
0.0256919
0.363956
0.202114
-0.049619
-0.467098
-0.472122
-0.0805383
-0.334051
-0.0418667
-0.2556
0.0940958
-0.535887
0.238183
0.253167
-0.236676
-0.426649
0.147196
0.0724893
-0.162511
0.0467006
-0.024346
-0.100274
0.0351515
0.310374
0.0113382
-0.329701
-0.541821
0.0511214
-0.236991
-0.792608
-0.104676
0.204905
0.171331
0.346003
0.285503
0.0782311
-0.118216
0.00997393
-0.428275
0.104131
0.226759
0.101276
-0.105785
0.391105
0.177592
0.540489
0.147861
0.552014
-0.241387
0.21463
-0.182566
0.7109
0.221252
0.331402
-0.00477632
0.123794
-0.111058
0.274485
0.612303
0.121166
0.652037
0.668497
0.126502
0.015969
0.430199
-0.191302
0.221322
0.308508
0.572078
0.208793
0.0113213
0.00248397
0.304363
0.706588
0.207833
0.25711
-0.0209931
0.681913
0.492977
0.184752
0.232604
0.356869
0.171107
0.406019
-0.124642
-0.0282997
0.608089
0.528229
0.376297
0.34615
0.427221
0.164951
-0.207415
0.201344
0.490735
0.0360816
-0.0555277
-0.0601192
0.0127499
0.149295
0.401723
0.160733
-0.0817835
-0.100285
0.196288
0.181244
-0.296472
0.333243
0.133134
-0.218712
-0.00104671
0.101767
0.222167
0.0954014
-0.441455
-0.464863
-0.578702
-0.293065
-0.467572
0.0550142
-0.0747139
0.175519
-0.455773
-0.500324
-0.550129
0.0653783
-0.0341008
0.127997
-0.08778
-0.335038
-0.300235
0.0561008
0.137487
0.0462018
-0.0388435
-0.445292
-0.0495289
-0.342634
-0.47881
-0.366718
-0.338125
-0.069528
0.111605
-0.553391
-0.591267
-0.29893
0.128151
0.206672
-0.430503
-0.0302053
-0.0159937
-0.490419
-0.188811
-0.488708
-0.279894
-0.219685
-0.426336
-0.32413
-0.0939739
-0.239461
-0.332411
-0.546075
-0.159759
-0.209986
0.0171186
-0.259192
-0.415632
-0.472818
-0.425341
-0.196117
-0.541459
0.0850847
-0.302027
-0.569666
-0.355927
-0.102287
0.0544453
-0.601472
-0.287109
-0.478603
-0.349136
-0.527342
-0.176258
-0.08963
0.101702
-0.109286
-0.434758
-0.269255
-0.526243
-0.113373
-0.242923
-0.147356
0.29167
-0.661848
0.638475
0.216842
0.0763086
0.711023
-0.110575
0.0951852
0.481983
0.340006
-0.0425488
0.421523
0.032337
0.22793
0.756108
0.7141
0.118106
-0.0453803
0.174077
0.191005
-0.196114
0.315809
0.261306
0.598051
0.716722
0.541745
0.163233
0.736446
0.337718
0.411207
0.510664
0.256336
0.500861
0.0727497
0.410248
0.462277
0.413925
0.410697
0.0629211
0.19516
0.384489
0.46808
0.27019
0.50153
0.400144
0.456086
0.230645
0.279178
0.181339
0.479251
0.377167
0.452736
0.69585
0.102771
0.0861287
0.688465
0.399858
0.580806
-0.0939981
0.425316
0.162592
0.6001
0.16353
0.245805
0.331531
0.281273
0.17582
0.216742
0.588545
0.362899
0.628064
0.213469
0.306792
-0.066422
0.142675
-0.0192924
0.204388
0.36335
0.331291
0.327384
0.502563
0.24301
-0.232598
-0.163335
-0.343728
-0.187473
-0.103923
-0.114402
-0.314506
-0.276726
-0.412966
-0.153367
-0.262385
-0.345077
-0.524186
-0.442101
-0.72301
-0.495584
-0.53899
-0.624623
-0.299897
-0.131902
-0.284256
-0.759468
-0.385659
-0.577114
-0.275891
-0.191728
-0.37425
0.0736568
-0.0146061
-0.551248
-0.664295
-0.581609
-0.350557
-0.759296
-0.443949
-0.446419
-0.530038
-0.160283
-0.635383
-0.31334
-0.185637
-0.563455
-0.515028
-0.459445
-0.176582
-0.335648
-0.214951
-0.511279
-0.272251
-0.609103
-0.649232
-0.198775
-0.714238
-0.484065
-0.522361
-0.30693
-0.614512
-0.311138
-0.659091
-0.355329
-0.241871
-0.110715
-0.353775
-0.328084
-0.402276
-0.551443
-0.521616
-0.54801
-0.135875
-0.56928
-0.46296
-0.420704
-0.279291
-0.322992
0.0419134
-0.353036
-0.38775
-0.292162
-0.188776
-0.412805
-0.348308
-0.164006
0.598605
-1.58269
-0.353936
-0.417958
-0.449422
-0.280689
-0.3266
0.221699
0.0715907
-0.348798
-0.220096
0.0263749
0.156067
-0.275397
-0.115143
-0.155802
-0.357644
-0.1274
-0.129259
-0.030008
-0.59131
-0.313856
-0.350111
-0.291436
-0.197173
-0.314679
-0.289824
0.098078
-0.433264
0.131781
-0.0976178
0.290771
-0.300439
-0.167855
-0.0104614
0.069816
-0.205176
-0.151895
-0.261409
0.133134
-0.137229
-0.620527
0.279278
0.244054
-0.10865
0.204122
-0.277201
-0.162628
-0.0247107
-0.171113
-0.359777
-0.049812
-0.29009
0.00926996
0.278957
-0.033149
-0.414106
-0.00839014
0.13625
-0.243907
-0.329885
0.315565
0.324784
-0.0438883
-0.285032
-0.0548926
-0.41101
0.0235244
0.0869797
-0.130108
-0.305743
-0.424922
-0.470117
-0.318617
-0.464192
0.0518648
-0.0114719
0.0403705
-0.367667
-0.409171
-0.400609
0.0447325
-0.133863
-0.121724
0.265016
-0.255108
0.0293722
0.156711
0.382805
0.376307
0.251014
0.261112
0.203677
0.345248
0.0624732
0.308186
-0.121463
-0.0576603
-0.0531568
0.187925
-0.0276275
0.0990999
0.122265
-0.0893363
-0.247424
-0.141363
-0.144965
0.191919
-0.0740172
-0.200868
0.00741293
-0.376896
0.0899601
-0.41875
-0.0928105
0.0499324
0.0210552
0.199645
0.087079
0.356756
-0.226759
0.0735027
-0.494148
-0.31133
-0.431194
0.242147
-0.288882
0.241195
-0.238884
-0.17602
0.068773
-0.383377
-0.0551305
0.173728
0.312784
0.291865
-0.297263
0.0996901
0.0192504
-0.063606
-0.145526
-0.277755
-0.0888182
0.233507
0.133767
0.274082
0.291027
0.0879861
-0.243002
-0.225887
-0.224148
-0.0252047
0.11512
0.0939833
-0.0691951
-0.265075
0.120546
0.0572492
0.133836
0.125699
-0.276938
0.057281
-0.306959
-0.364288
0.670968
0.80838
-0.178342
-0.0861864
0.327288
0.431843
0.402193
0.0867108
0.482051
0.314824
-0.000451354
-0.0415824
0.492462
-0.0172028
-0.122426
-0.109598
0.527001
-0.107472
0.687523
0.442159
0.433453
0.430597
0.555023
0.67765
0.358621
0.261484
0.258978
-0.141095
0.190868
0.10621
0.24058
0.24493
0.569114
0.511976
0.647486
0.59794
0.22658
0.374472
0.376977
0.178545
0.069795
0.416854
0.492916
0.651588
0.654309
0.285745
-0.0757026
0.35384
0.27934
0.408159
0.456622
0.235274
0.188783
0.284234
0.262024
0.00261808
0.0199363
0.230717
0.268747
0.393296
0.043698
0.763319
0.214591
0.186485
0.415176
0.322829
0.270271
0.485556
0.423933
-0.114528
0.18201
0.150139
0.61071
0.301344
-0.583372
0.0632403
0.0165612
0.248791
0.465975
-0.0658586
0.235501
0.140054
-0.0281589
-0.345354
0.0996913
-0.287028
-0.10305
-0.130294
-0.58012
0.0966324
-0.286371
-0.155645
-0.396469
-0.425047
-0.28021
-0.349428
-0.235729
-0.178181
-0.731927
-0.117632
-0.572517
-0.263808
-0.498682
-0.0428478
-0.503934
-0.394817
-0.181775
-0.363916
-0.262365
-0.0518982
-0.376672
-0.300259
-0.0745751
-0.428222
-0.567162
-0.0766061
-0.20678
-0.43262
-0.0469364
-0.00965288
-0.386229
-0.590223
-0.556783
-0.226901
-0.364967
-0.340071
-0.0630661
-0.347123
-0.772867
-0.167019
-0.366398
0.0310318
-0.475101
-0.387868
-0.552082
-0.181613
-0.343137
-0.0351576
-0.472574
-0.311583
-0.0700439
-0.742671
-0.361435
-0.313288
-0.128251
-0.239632
-0.462609
-0.365
-0.280669
-0.209449
-0.530849
-0.820703
-0.337911
-0.214112
-0.307384
-0.270514
-0.544393
0.0495075
-0.20551
-0.30817
-0.0167352
-0.521532
-0.229761
-0.176504
0.426488
-1.04698
0.352735
-0.0784927
-0.0208922
0.365664
0.313597
0.323559
0.335501
0.34537
0.17171
0.318776
-0.117701
0.10509
-0.249043
0.1764
0.320747
0.336162
0.20858
0.310067
0.082481
0.394744
0.332137
-0.0465905
0.108796
0.10499
-0.0128985
0.00165354
0.204266
-0.0196537
0.299241
0.0944174
0.0995795
0.14099
-0.158066
0.36219
0.356142
0.0943473
-0.0631449
0.00376563
-0.155892
0.128904
-0.144937
0.292789
-0.196993
0.00973004
0.514734
0.205226
0.294455
-0.142354
0.044281
0.202752
0.429377
-0.0533617
0.112654
-0.0251495
-0.32877
-0.165646
0.127629
-0.103152
-0.292386
0.186253
0.092084
0.151829
-0.0267847
0.0120264
-0.266338
-0.0161549
0.191263
-0.425642
0.00572907
-0.264912
0.383509
0.070706
0.0889602
0.0694492
0.0123117
-0.120987
0.15256
0.334679
0.170669
0.352899
-0.109031
-0.162291
-0.493096
-0.271807
-0.566433
-0.323551
-0.130923
-0.0304423
-0.283419
-0.052179
-0.582278
-0.239624
-0.460915
-0.61934
-0.292733
0.0554256
-0.269974
-0.299111
-0.262272
-0.461669
-0.0516208
-0.295752
-0.0813207
-0.284739
-0.529111
-0.00305608
-0.466601
0.17301
-0.14435
-0.045249
-0.640032
0.222734
-0.39222
-0.0920694
-0.535161
0.0608486
-0.137202
-0.611459
0.00783835
-0.0249411
-0.480088
-0.322316
-0.180341
-0.512317
-0.557879
-0.188669
-0.350706
0.145193
0.011591
0.0164712
0.0143831
-0.0115888
-0.452418
-0.0811039
-0.335685
-0.647742
-0.40988
-0.0116573
0.187634
-0.319681
-0.00635919
-0.324453
-0.0305004
-0.583553
-0.307863
-0.308207
0.142452
-0.175999
-0.05021
0.0342552
-0.378304
0.0689317
-0.110675
0.149654
-0.417693
0.146117
-0.168985
-0.177316
-0.331536
0.0752473
-0.000440767
-0.632067
-0.158795
0.251514
-0.270795
-0.338732
-0.0360938
-0.00162522
-0.372303
-0.157021
-0.0457847
-0.309204
-0.288748
-0.452995
0.104234
-0.62716
-0.170659
-0.406874
-0.0298078
-0.299994
0.0389394
-0.274504
0.043093
-0.393971
-0.422431
-0.219071
-0.446865
-0.352131
-0.707045
-0.343011
-0.0325824
0.263493
0.0994833
-0.374066
-0.0516834
-0.472496
-0.139799
-0.49564
-0.461579
-0.238537
-0.438975
-0.393822
-0.148203
-0.47018
-0.488976
-0.81497
-0.412319
-0.404897
0.0784972
-0.244386
-0.436368
-0.543933
-0.534646
-0.611608
-0.358378
-0.377251
-0.532916
0.0168416
-0.317992
-0.401399
-0.271575
-0.274018
-0.401354
-0.0423085
-0.615758
-0.173612
-0.257761
-0.0575455
-0.170091
-0.146161
0.04046
-0.115296
-0.493123
-0.184919
-0.394826
-0.136466
-0.131582
-0.602772
-0.51822
0.0331808
-0.367304
-0.408753
-0.343754
-0.326921
-0.248597
0.26586
0.182271
-0.293129
0.380015
0.105637
0.396911
0.103036
-0.0352158
-0.279927
-0.251301
0.207845
0.565495
0.180498
0.235667
0.602893
-0.247762
0.290748
0.359017
0.405487
0.433735
0.115167
0.451599
0.482236
-0.0525915
0.612077
0.12771
-0.0105535
0.393008
0.227333
0.571993
0.334875
0.419325
0.579575
-0.0991226
0.216
-0.00489292
0.29209
0.356334
0.75088
0.624342
0.482322
0.23923
0.182196
0.752793
0.391416
0.491959
0.167768
0.466573
0.630207
0.188221
0.390133
0.445691
0.502219
-0.343849
-0.0870818
-0.0129384
0.493659
0.640288
0.536872
0.261472
0.318576
0.226377
0.00928496
-0.219211
-0.00401816
0.0123324
0.49215
0.375253
0.321379
0.323404
0.57193
0.29049
0.146282
0.836168
0.369203
-0.0241146
0.0946911
0.108181
0.17977
0.165651
0.356817
-0.468918
-0.863411
-0.422049
-0.545509
0.0218112
-0.328926
0.0292191
-0.374973
-0.418862
0.0708137
0.0669047
-0.303911
-0.585616
-0.0859216
-0.353797
-0.0183707
-0.798893
-0.126206
-0.535405
-0.337671
-0.525516
-0.423379
-0.503554
-0.467349
-0.325014
-0.244027
-0.445149
-0.150466
-0.285483
-0.0683417
-0.540303
-0.607449
-0.601722
-0.341072
-0.377391
-0.326505
-0.637528
-0.531799
-0.328432
-0.12701
0.0453085
-0.344252
-0.0745748
-0.469981
-0.581471
-0.200117
-0.1256
-0.684775
-0.262516
-0.173969
-0.150127
-0.0658501
-0.651693
-0.01487
-0.0395121
-0.0290851
-0.134064
-0.155454
-0.641514
-0.501813
-0.224938
-0.459918
-0.155826
-0.168681
-0.391669
0.142497
-0.502247
-0.278956
-0.566077
-0.381116
-0.669153
-0.591015
0.0477108
-0.115255
-0.118995
0.222739
-0.234221
-0.302921
-0.159195
-0.307981
-0.169
-0.324854
-0.270697
0.0946881
-0.00254691
0.606722
0.627056
0.557874
0.466802
0.300661
0.183114
0.381261
-0.042606
-0.033702
0.480478
0.040817
0.00784183
0.0954426
0.17698
-0.0557094
0.0120383
0.587988
0.541442
0.242583
0.570753
0.337287
0.121952
0.325329
0.445403
-0.0364562
0.306758
0.26076
0.0732951
0.596839
0.420908
0.691726
0.0463946
-0.120912
0.672405
0.311369
-0.120383
0.375526
0.826992
0.920052
0.572095
0.324633
0.0917378
0.34032
0.103478
0.729243
-0.025215
0.513793
0.612337
0.235542
0.509328
0.45657
0.638659
-0.0870239
0.502009
-0.0953867
0.155411
0.285204
0.341187
0.374771
0.388531
0.0955722
0.10632
0.446942
0.339422
0.537714
0.400872
0.0354202
0.497788
0.41214
-0.123877
-0.0488717
0.084699
-0.0521747
0.117219
-0.104522
0.193124
0.433099
0.310883
0.179025
-0.524403
-0.477406
-0.396175
0.0734222
0.0107069
0.321064
-0.295352
-0.463895
-0.420247
-0.0703124
0.139835
-0.543095
0.180347
0.0966086
-0.447627
0.105326
0.114722
-0.080913
0.422554
0.181643
-0.00969242
0.212064
-0.524188
-0.243339
-0.0758251
0.397646
-0.147475
-0.417492
-0.314654
-0.199514
0.231035
0.0740013
-0.338996
0.0383417
0.214295
-0.468193
-0.0799989
0.172421
-0.166141
-0.149721
-0.219177
-0.23937
0.324028
-0.204755
-0.00842058
0.0367332
-0.417121
-0.347519
0.322035
0.405646
-0.034633
0.316559
-0.0623829
-0.569443
-0.256235
0.353361
0.313571
-0.502564
-0.43895
-0.472343
0.322466
-0.406403
0.0147079
0.367221
-0.249034
-0.255676
-0.212255
-0.437669
0.378751
-0.107624
0.117926
-0.104903
-0.00253785
0.319184
-0.0706492
-0.0488778
-0.200277
0.114831
-0.0269001
-0.196654
-0.502723
0.197431
-0.458681
0.3417
-0.037866
0.0470505
-1.66545e-05
-0.449851
0.148797
-0.560589
-0.0126867
-0.0453628
-0.454333
-0.225297
0.0982668
0.00769206
-0.0078141
-0.509557
0.0658842
-0.0242226
0.335877
-0.369098
-0.538918
-0.0343915
-0.249347
0.32277
-0.448654
0.174349
-0.330546
0.243149
-0.0372574
-0.552786
-0.167194
0.304101
0.0229957
-0.455922
0.165855
-0.125345
-0.595505
-0.371333
-0.495098
-0.229034
-0.609664
-0.505017
0.264964
-0.223311
-0.0267477
0.310224
-0.280242
-0.541683
0.179845
-0.0349065
-0.372773
-0.217383
-0.319673
-0.166405
-0.3456
-0.207316
-0.0113593
0.337669
-0.0666702
-0.360341
-0.178811
0.0322307
-0.396548
-0.315934
0.329873
-0.584036
-0.273534
-0.140363
-0.443116
0.0168667
-0.349829
-0.320706
-0.400816
0.000454048
0.0684805
0.0816858
0.104886
0.176952
-0.297873
-0.185851
0.36504
-0.402438
-0.408529
-0.62822
-0.132489
0.324764
-0.231538
-0.11986
0.006779
0.17255
0.0357323
0.334786
0.000934025
0.105475
-0.155486
-0.0272563
0.159826
0.172959
0.455556
0.023849
0.54189
-0.231196
0.599651
0.0242138
0.524785
-0.0452187
0.658988
0.060851
0.613646
-0.0253557
0.159389
0.198135
-0.186476
0.161687
0.149222
0.0498058
0.121728
0.411054
0.419522
0.398732
0.487619
-0.0297993
0.380489
0.298461
0.487427
-0.0108462
-0.0239164
0.343829
-0.208961
0.24597
0.493155
0.496566
0.590717
0.11148
0.265556
-0.165162
0.196075
0.345759
-0.065491
0.54154
0.322508
0.4748
0.021456
0.351954
0.205885
0.0582325
-0.345974
-0.118126
0.332554
0.308245
0.255901
0.108351
-0.287061
0.193819
0.363975
0.392723
-0.03077
0.400366
0.257574
-0.264375
-0.276415
-0.091086
0.190882
-0.212929
0.0804321
-0.147388
-0.370804
-0.274217
-0.304176
-0.336214
0.0723444
-0.153157
-0.308961
0.235902
-0.532086
-0.136941
-0.406983
-0.194476
-0.383472
-0.4841
-0.59295
-0.138889
0.254354
-0.380374
-0.166727
-0.37837
-0.39831
-0.35588
-0.491848
-0.274573
-0.350944
0.0951517
-0.157702
-0.0287562
0.00430084
-0.20813
-0.438222
-0.589527
-0.348156
0.102489
-0.553344
0.314815
-0.0295876
-0.123921
0.0109393
0.00584548
-0.137614
0.0220474
-0.640873
-0.134489
-0.528701
-0.474796
-0.434535
-0.489448
-0.362935
-0.308733
-0.749249
-0.608893
-0.473929
-0.324618
-0.0498442
-0.430787
-0.538909
-0.435811
-0.10712
-0.22223
-0.285261
0.0517218
-0.303684
-0.0969861
-0.0971715
-0.523395
-0.540051
0.168924
-0.306189
-0.0214058
0.351187
-0.133887
-0.450486
0.0181956
-0.323285
0.0401336
0.237359
-0.386307
0.0945283
0.122603
0.196068
-0.543656
-0.4688
-0.0481878
-0.355989
-0.586331
-0.447797
-0.620314
-0.291011
0.0621521
-0.0558352
-0.202022
-0.653903
-0.345104
0.00888353
-0.5557
-0.628775
-0.310641
-0.361063
0.121417
-0.319702
-0.616382
-0.331011
-0.64302
-0.604622
-0.520208
-0.635112
-0.175824
-0.522709
-0.0364912
-0.130704
-0.627774
-0.271599
-0.316445
-0.741387
-0.10447
-0.110159
-0.359423
-0.425532
-0.347088
-0.440607
-0.631214
-0.175568
-0.2715
-0.123374
-0.730924
-0.0466349
-0.476051
-0.493364
-0.139293
-0.153961
-0.478087
-0.52174
-0.371354
-0.186311
-0.150255
-0.562702
-0.606902
-0.312288
-0.557119
-0.39708
-0.250235
-0.436151
-0.0251382
-0.3024
-0.563339
-0.481524
-0.182263
-0.324283
-0.230716
-0.166252
-0.386859
-0.19094
-0.188715
-0.0651235
-0.582292
-0.328235
-0.342288
-0.379738
0.320722
-0.316762
-0.364036
-0.0262046
-0.0316746
0.138706
0.176636
0.318177
0.577574
0.309281
0.0872028
0.38222
0.0138623
0.539075
0.263522
0.179132
0.35273
0.502872
0.0245027
0.426807
0.225027
0.29308
0.280124
0.461157
0.95441
0.167651
0.133139
0.281397
0.24513
0.576086
0.357203
0.0256298
0.723358
0.489659
0.377032
0.167321
0.325191
0.433725
0.756363
-0.107853
-0.236246
0.167005
0.0351696
0.504277
0.322601
0.447995
0.570796
0.794794
0.223378
0.0863791
0.263094
0.594162
0.174345
0.215917
0.24797
0.221135
0.385101
0.0504047
0.271634
-0.0145811
0.411044
0.509682
0.210358
0.594966
0.669404
0.492035
0.284698
0.353602
-0.0144115
0.304679
0.248545
0.454627
0.777567
0.181229
0.203567
0.539125
-0.230555
-0.115031
0.379724
0.319725
0.429517
0.0794728
0.109918
0.114498
-0.421932
-0.547613
-0.54071
-0.0883428
0.330507
-0.450691
-0.499596
0.124302
-0.055418
-0.165619
-0.476371
-0.466552
-0.500169
-0.575731
-0.464802
0.421722
-0.265944
-0.344903
-0.543831
-0.219432
-0.140802
0.181401
0.245956
-0.184677
0.0426696
-0.138433
0.266566
0.0834188
-0.0759832
-0.290062
-0.328821
-0.421215
0.329112
-0.430474
-0.248062
0.1182
-0.318651
0.00620818
-0.392085
-0.101361
-0.354767
0.0873128
0.236925
0.138749
-0.451067
-0.345256
-0.0838437
0.184505
-0.154074
0.00908415
0.360262
0.20467
0.335856
-0.104762
-0.0210638
0.35937
0.331499
-0.018587
0.135909
-0.518031
0.074435
0.00321404
0.222927
-0.2845
-0.190627
-0.0931512
-0.0654395
-0.20843
0.323194
-0.459137
-0.23864
0.214634
0.32802
-0.151249
-0.438608
-0.570818
0.253232
-0.170921
-0.0522629
-0.0647293
-0.212218
0.010352
-0.549272
-0.112639
-0.143927
-0.0793627
0.216482
-0.0608662
-0.0224919
-0.246886
-0.0204575
0.295371
-0.171093
-0.121329
-0.281188
0.345183
0.459946
-0.376141
-0.237427
-0.440654
0.050686
0.333521
0.142615
-0.317273
0.226145
0.330304
0.321837
0.247497
-0.250758
0.322751
-0.279461
0.455214
0.190506
-0.201223
0.182072
-0.272942
-0.00748514
-0.0033186
-0.172029
-0.442721
-0.0573381
-0.326089
-0.0996336
0.377591
-0.31829
-0.0750962
-0.394964
-0.128118
0.153374
0.287396
-0.136405
0.168918
-0.395753
-0.0443431
0.286739
0.0159757
0.437317
0.192264
0.132302
0.114852
-0.513743
0.148907
-0.227278
0.272948
-0.400924
0.213881
-0.377055
-0.109234
0.116834
0.0251867
-0.511848
-0.0774677
0.0472041
-0.436595
-0.248065
-0.036156
-0.334508
0.368235
0.315837
0.149724
-0.111768
-0.000886894
-0.416644
-0.394224
0.201127
0.442715
-0.429044
-0.103515
-0.229178
-0.159061
-0.182236
-0.381529
-0.155665
-0.115583
-0.218667
-0.24494
0.120617
-0.422556
-0.462231
-0.689373
-0.375725
0.207238
-0.112038
-0.465408
-0.306014
0.07229
0.106485
-0.682442
-0.357228
-0.404553
-0.509742
-0.311076
-0.498286
0.0165653
-0.32004
-0.871791
-0.362111
-0.419621
-0.0101096
-0.573101
-0.160074
-0.622424
-0.0392012
-0.117656
-0.246011
-0.688831
-0.788298
-0.479895
-0.221529
-0.544004
-0.574421
-0.15473
0.0898759
-0.697817
-0.469084
-0.12115
-0.350495
-0.324599
-0.747757
-0.00814127
-0.409161
-0.313317
-0.308453
-0.108683
-0.547339
-0.176558
-0.254806
-0.205967
-0.658086
0.145798
0.0653153
-0.524439
-0.602217
-0.349578
-0.747107
-0.364944
-0.216727
-0.327536
-0.124184
-0.223075
0.115061
-0.187149
-0.654693
-0.656601
-0.0789783
-0.151029
-0.143051
-0.281917
0.23423
0.772197
-0.0873014
0.0580912
-0.0596938
0.0424665
0.0531162
0.364956
0.258894
0.54187
0.225836
0.216996
0.635701
0.421505
0.411816
0.140621
0.277933
0.145708
0.0379213
0.177993
0.531083
0.223823
0.628573
0.344086
0.301511
0.257347
0.0560996
0.504591
0.202149
0.0962725
0.808404
0.551507
0.217477
0.125727
0.52466
0.0696948
0.320677
0.533047
0.418851
0.0655229
0.605134
0.20428
-0.0118068
0.146706
0.266754
-0.0329422
0.142084
0.46208
0.54334
0.397621
0.481075
-0.0427119
0.0965209
0.00459154
0.176817
0.218582
0.461507
0.474366
0.326509
0.248903
0.603546
0.168322
0.258105
0.176938
0.237396
0.415626
-0.0202172
-0.0197502
0.22645
0.135117
0.301314
0.17248
0.285765
-0.143191
0.10678
0.0204119
0.342093
0.358984
0.500666
0.607802
0.307448
-0.572023
-1.13072
0.234041
-0.342273
-0.409412
-0.348342
-0.347438
-0.459724
-0.384899
0.064212
-0.126155
-0.263657
0.300588
-0.267103
0.0901653
-0.22724
-0.053851
-0.0390996
-0.469231
-0.443345
-0.403873
-0.112155
-0.453399
-0.0326257
-0.361878
-0.152367
-0.000861288
-0.453132
-0.0340081
-0.0154261
-0.628051
0.047026
-0.182171
-0.712925
-0.232109
-0.603002
-0.6396
-0.2341
-0.443115
-0.586466
-0.331073
0.0775315
-0.221907
-0.75537
0.163266
-0.544948
-0.0535125
0.0424303
-0.163237
-0.47882
-0.0376263
-0.588629
-0.139036
0.190236
0.174634
-0.371838
-0.151688
-0.430619
0.114811
0.0589484
-0.340949
-0.7873
-0.385988
-0.320485
0.136933
-0.034805
0.128173
-0.204137
-0.10136
-0.39675
-0.286762
0.0726921
-0.257104
-0.305764
0.0766122
-0.487581
-0.0587241
-0.369963
-0.0373863
-0.443066
-0.380033
-0.181286
0.0738888
-0.0496058
-0.197708
0.225283
-0.00553681
0.357023
0.00759015
-0.268144
-0.330027
-0.159769
0.31602
0.222132
-0.0972262
0.399015
0.470363
0.269487
0.539485
0.248288
-0.0727561
0.420039
-0.0483519
0.255463
0.488748
0.620375
0.698908
0.470082
0.265562
0.253222
0.302447
-0.0431994
0.439396
-0.230098
0.339624
0.13873
0.438102
-0.0475879
0.309702
0.204852
0.315776
-0.213778
0.232771
0.105012
0.413074
0.199721
-0.287328
0.384956
-0.0836001
0.0454739
0.324461
0.2853
0.0050912
0.47805
0.0467102
0.00339755
0.148476
0.395988
0.437591
0.0853589
0.0775516
0.149428
-0.214978
-0.0877194
0.35583
-0.19116
-0.227756
0.302477
0.389369
0.292815
0.0161399
0.274188
-0.0839003
0.113389
-0.0130743
-0.111289
0.237418
0.299337
-0.163773
0.336299
0.46035
-0.471117
0.0223418
0.192359
-0.292972
-0.782366
-0.378915
-0.199212
0.142362
-0.0177895
-0.162006
-0.55036
-0.296576
-0.368483
-0.216151
-0.282553
-0.105079
-0.460828
-0.30032
-0.368817
0.168488
0.157238
-0.0881263
-0.163377
-0.220797
0.322155
-0.521868
-0.460576
-0.494665
-0.466307
-0.35199
0.275656
-0.0510527
0.0981676
0.214859
-0.322346
0.231163
-0.446089
-0.355015
0.0956327
0.196238
0.183708
0.179055
-0.516571
-0.173101
0.213832
0.0887439
0.103362
-0.395733
-0.282609
-0.0151671
-0.0205542
0.231744
-0.383052
0.0517742
-0.0245379
-0.245801
0.341933
-0.429456
0.123205
-0.0506382
0.168121
-0.180663
-0.318495
-0.13034
-0.166201
-0.178182
0.162704
-0.221214
-0.425206
0.269265
0.0125015
-0.475542
0.158897
-0.423387
-0.279166
0.31971
-0.0552106
-0.194306
-0.480952
0.276951
-0.227631
0.105568
-0.426713
-0.049814
0.371302
0.28871
0.289586
-0.381629
-0.40825
0.273897
-0.188734
-0.400762
0.158104
0.279352
-0.558786
-0.0651652
-0.343271
-0.312191
0.306286
0.17883
-0.288214
-0.297985
-0.570832
-0.367716
-0.214596
0.309978
0.136992
-0.565671
-0.394842
-0.0466824
-0.26904
-0.00213405
0.0409597
-0.115846
-0.119909
-0.0174213
-0.358335
0.154047
-0.0204838
-0.172682
0.278155
-0.0454473
-0.33396
-0.266126
0.143723
-0.479712
0.202242
-0.0234934
-0.452975
0.229238
0.16501
-0.0708149
0.195177
-0.366615
0.245319
0.243633
-0.281126
0.217666
-0.160506
-0.027738
0.256148
0.265604
0.217546
-0.144866
0.273664
-0.355058
0.15706
0.167233
0.121733
-0.427446
0.33953
-0.214553
-0.355455
0.0536335
0.123607
0.349134
0.205325
-0.0180253
-0.063035
-0.451859
-0.0782603
-0.231755
-0.197992
-0.419935
-0.29314
0.376887
0.353431
-0.586896
-0.378725
0.160608
0.00384455
0.0941044
0.257658
0.0964269
-0.342807
-0.305177
0.354356
-0.498349
-0.433332
-0.396611
0.287594
-0.481912
0.219355
0.0865709
0.114773
0.0914542
-0.544318
0.306096
-0.166861
-0.204161
-0.440192
0.318014
-0.39843
-0.367356
0.265982
-0.0879337
-0.271486
0.285583
-0.317291
0.0355496
-0.138578
0.103316
0.181694
-0.119889
-0.314958
0.365256
0.0867473
-0.394525
0.418279
-0.338083
0.0230205
0.162603
-0.386428
-0.105154
0.227355
-0.390613
0.300445
-0.370144
-0.436153
0.0284124
-0.0175348
-0.557346
-0.108674
-0.176113
-0.0424404
-0.258541
-0.346317
0.0985957
-0.0784027
-0.106194
-0.193621
-0.0750617
-0.174182
0.0356978
-0.455295
0.180339
-0.106499
0.266177
0.250973
0.193003
-0.114154
-0.24291
-0.432308
0.192834
-0.461299
-0.0569008
-0.362914
0.278136
-0.45831
0.0549345
0.418152
-0.226867
0.052804
0.280909
-0.238232
-0.327796
0.132574
0.364508
-0.49295
0.313533
0.26436
-0.365731
-0.179914
0.0615814
-0.262334
-0.12404
0.21679
0.0790339
-0.0911581
-0.254455
-0.36639
-0.173359
0.00515262
0.13688
0.349243
0.332
-0.151518
0.0446787
-0.0533394
-0.148655
-0.0420335
-0.466811
0.0603302
0.0116065
-0.274017
0.0632592
0.0612171
0.198582
-0.32376
0.131733
-0.235701
-0.336083
0.0240114
-0.252305
0.0956514
-0.43681
-0.442894
-0.19717
0.0139849
-0.293263
-0.314217
-0.157614
-0.421139
-0.0145752
0.166238
0.133804
-0.0447483
-0.252825
0.167959
-0.259466
-0.151235
-0.0445993
-0.0042484
-0.505656
0.166461
-0.146561
-0.258364
0.238163
-0.0751044
-0.119038
-0.325518
-0.0173261
0.329253
-0.0326162
-0.0457104
0.174547
-0.419192
-0.379441
0.211191
-0.312988
0.0101093
0.801483
0.572654
-0.394958
-0.209536
-0.0882707
0.10589
-0.325489
-0.106412
-0.412824
-0.246842
-0.168348
-0.14877
-0.16155
-0.188345
-0.359658
0.15747
0.120931
0.0349875
0.112121
-0.396589
-0.184202
-0.376237
-0.0690131
0.181973
-0.075878
0.241305
-0.342089
-0.44957
-0.288375
-0.604398
-0.489163
-0.166986
0.0864393
-0.438128
0.0210487
-0.0646148
-0.177192
-0.421774
-0.0792171
-0.471837
-0.0072413
-0.304799
-0.704825
0.00883089
-0.102397
-0.321693
-0.115935
-0.211091
-0.0546026
-0.0635069
-0.397428
-0.535224
-0.10951
-0.54668
-0.680307
-0.478836
-0.616989
-0.213786
-0.514024
-0.38596
-0.679333
0.0153438
-0.719543
-0.378227
-0.676656
-0.452513
-0.365375
-0.272248
-0.235946
-0.350301
-0.615646
-0.487081
-0.066958
-0.773665
-0.442062
-0.113645
-0.472784
-0.234795
-0.470806
-0.107504
-0.213577
-0.51985
-0.145565
0.111969
0.0887957
-0.0943686
-0.227554
-0.347067
0.235087
-0.195758
-0.145378
0.177822
0.195956
0.218042
-0.269086
-0.300511
-0.190744
-0.31819
-0.0434995
0.334561
-0.0765263
0.167468
0.202966
0.120026
0.0501204
-0.25299
-0.0635403
-0.317117
-0.224049
0.100287
-0.0150987
-0.272763
0.330657
0.169821
-0.209614
0.178123
-0.0306634
0.289972
0.523701
0.295185
0.108238
0.326898
0.24271
-0.125782
0.212427
0.238525
0.300776
0.215432
0.0950621
0.3264
0.380432
0.229295
-0.211269
-0.212624
0.0204549
0.194951
0.477181
-0.182044
0.211378
0.464001
-0.130617
-0.0544931
0.413785
0.0502869
0.427631
0.161207
0.25961
0.534552
0.119212
0.0675874
-0.0507313
0.0956335
0.370374
-0.033146
0.0362306
0.319643
0.400378
0.10637
0.549714
0.505683
0.430232
0.254417
0.673382
0.155839
-0.402782
-0.307949
-0.127792
0.285323
0.348856
-0.249148
-0.289199
-0.23008
-0.0485633
-0.0678187
0.416299
-0.373388
0.153101
0.0138431
0.278972
0.378773
0.160881
-0.204895
0.053622
-0.237959
0.401143
0.105658
-0.321365
0.182033
-0.35412
-0.0895162
0.034349
-0.148198
-0.15028
-0.364309
-0.392023
-0.463231
-0.0100057
-0.154467
-0.241562
-0.370731
-0.129958
0.279043
-0.159351
0.0577265
-0.333497
0.170504
-0.0522312
-0.29951
-0.336591
-0.225087
-0.253271
-0.213763
-0.440459
-0.0720613
0.287326
-0.418342
-0.22707
0.123928
0.18158
-0.130745
0.302211
-0.26181
-0.160502
0.0964532
-0.230833
-0.512234
-0.395125
-0.161407
-0.327095
0.110459
-0.181074
-0.141296
-0.256643
0.516095
-0.0643485
0.0670351
-0.173614
0.109652
0.221801
-0.45666
-0.409414
0.0803587
0.0721645
0.00324586
0.374163
-0.145723
0.417484
-0.219896
0.277722
-0.375152
-0.262797
0.102263
0.151793
-0.487219
-0.0918402
-0.266431
-0.219972
-0.353805
-0.215857
-0.0833587
0.210512
-0.21453
0.232713
-0.441685
-0.0115352
0.20302
-0.410057
0.224912
-0.348023
0.260628
0.356729
-0.0126149
-0.0134924
-0.204545
-0.523259
0.219677
-0.0803917
-0.114169
-0.00209963
0.0536686
0.286198
0.00771206
0.0912243
-0.128266
-0.394587
-0.0949267
-0.078173
-0.0275674
0.319978
0.301742
0.0481087
-0.517655
-0.277671
-0.422308
0.102346
0.314621
-0.299159
0.181345
0.21219
-0.17843
-0.248695
-0.00963858
-0.314059
0.0221569
0.0867591
-0.341469
-0.287778
0.0236013
0.290378
-0.175569
0.289665
-0.319327
-0.0982585
-0.0465063
0.128159
-0.13746
0.220684
0.0219363
-0.221153
-0.0761122
-0.52759
-0.468024
-0.125625
-0.173998
-0.07402
-0.0533715
-0.0573318
-0.135427
-0.534307
0.857094
0.069212
0.178604
0.155107
-0.160599
0.1999
0.468326
0.351676
0.0328301
0.138083
0.209125
0.406928
0.543191
0.422
0.241177
0.195382
-0.105624
0.415349
0.171307
0.127722
0.308879
0.280482
0.438047
0.0980653
0.372064
0.106511
-0.0646979
0.15975
-0.10701
0.54879
0.734441
0.216515
0.0899886
0.493008
0.170089
0.374769
0.00633868
-0.206315
0.681717
0.562186
0.3125
0.369117
0.392136
0.340346
0.800388
0.472731
0.126796
0.651989
0.56118
0.186739
0.442133
0.554772
0.510301
0.387958
-0.043227
0.0749953
-0.109813
0.438407
0.135807
0.555783
0.479184
0.474586
0.191323
0.398949
0.159654
-0.255927
0.547066
0.0262271
0.508346
0.0595908
0.574411
0.0738674
-0.130757
0.307628
-0.11953
0.516357
-0.127467
-0.0199118
0.191525
-0.142046
-0.133404
0.250504
-0.304057
-0.138605
-0.427172
-0.498733
-0.412797
0.108744
-0.250494
0.138346
-0.00179262
-0.0643199
0.0693773
-0.248605
-0.445638
-0.164089
-0.254722
0.0233108
-0.479592
0.00998612
-0.0419107
-0.558324
-0.309445
-0.439453
-0.489871
-0.186879
-0.549203
-0.692206
-0.263929
-0.551516
-0.478314
-0.280234
-0.494641
-0.363813
-0.481303
-0.656388
-0.434019
-0.345504
-0.3129
0.0235697
-0.685839
-0.630484
-0.658084
-0.834617
-0.50905
-0.542019
-0.0846749
-0.218971
-0.0251131
-0.401677
-0.503982
-0.768108
-0.184047
-0.240786
-0.404827
-0.0903264
-0.430403
-0.122423
-0.44076
-0.240074
-0.656215
-0.652554
-0.834605
0.0117062
-0.012314
-0.218653
-0.317118
0.0749853
-0.205271
-0.485194
-0.391488
0.158351
-0.398683
0.0405465
0.235794
-0.185972
0.202231
0.122924
-0.247287
-0.280193
0.0598509
-0.38685
-0.277997
0.542578
-1.34435
-0.128129
-0.0792542
-0.035967
-0.132092
-0.23813
-0.110721
-0.522711
-0.32841
-0.519729
-0.437211
-0.611937
-0.215796
-0.619338
-0.720574
-0.200207
-0.419347
-0.513588
0.0484838
-0.023639
-0.586436
-0.125423
-0.877543
-0.105276
-0.443719
-0.149946
-0.58241
-0.0927103
-0.30213
-0.696231
-0.317039
-0.745157
-0.395166
-0.343
-0.597756
-0.0712686
-0.0904393
-0.233644
-0.39945
-0.370475
-0.54614
-0.430896
-0.453003
-0.330728
-0.190909
-0.426043
-0.519174
-0.763466
-0.446044
-0.41472
-0.424142
-0.318167
-0.64988
-0.466633
-0.391201
-0.1401
-0.00887188
-0.39488
0.0500708
-0.682607
-0.563789
-0.86549
-0.554227
-0.122584
-0.0398588
-0.341929
-0.682272
-0.449305
-0.178339
-0.270381
-0.620856
-0.467987
-0.388939
-0.264586
-0.0942713
-0.38235
-0.421924
0.222856
0.12556
-0.264345
0.115582
-0.0264865
0.235666
0.181471
0.0465236
0.274614
0.682822
0.313201
0.520794
0.327028
0.104754
0.221705
0.264607
0.130009
0.480082
0.363598
0.286618
0.537966
0.023766
-0.299882
0.0264373
0.425829
0.37721
0.66271
0.341656
0.454961
0.149905
0.0202645
0.435429
0.367793
0.523537
0.348711
0.340639
0.534769
0.29524
0.354466
0.217988
0.239767
0.486326
0.420421
0.196397
0.512151
0.586267
0.469017
0.647503
0.150891
0.140405
0.579181
0.0617933
0.318522
0.466419
0.370557
0.764031
0.465755
0.323809
0.5192
0.534421
-2.93363e-05
0.408264
0.712868
0.337802
0.367515
0.410436
0.352868
0.197453
0.629363
0.0600319
0.26784
0.428732
0.0632058
0.126398
0.365321
0.390938
0.113323
-0.143888
0.0997712
0.197739
0.212209
0.376997
0.305344
0.524168
0.251221
0.0759215
-0.481904
-0.567477
-0.11746
0.502197
0.254209
0.638248
0.509207
0.194063
0.128938
0.362006
-0.155091
0.355378
0.0505974
0.863327
0.321659
0.201033
0.57933
0.535802
0.227195
-0.120478
0.385215
0.18134
0.542065
0.451011
0.185611
0.474671
0.532986
0.369206
-0.0544374
0.741264
0.140279
0.562254
0.470832
0.293212
0.580565
0.0869398
-0.0990551
0.330837
0.358594
0.442373
0.338891
0.406634
0.545745
0.0433746
0.378746
0.16004
0.106384
0.530992
0.509709
0.328116
0.638701
0.599109
0.161506
0.607602
0.49598
0.443154
0.178728
0.276775
0.924208
0.236965
0.286115
0.411029
0.571299
0.301343
0.404992
0.0780458
0.684513
0.159235
0.0150717
0.194882
0.528559
0.674829
0.551876
-0.0758793
0.0119941
0.380989
-0.249586
0.368375
0.275573
0.424297
-0.168056
0.0452516
0.169188
-0.122775
-0.538681
0.160273
0.0989668
-0.164456
-0.0636646
-0.352545
-0.0311133
-0.115259
-0.502292
-0.515161
-0.107835
-0.195792
-0.312161
-0.558231
-0.390589
-0.116111
-0.148534
-0.457797
-0.565662
-0.769893
-0.438212
-0.59196
-0.612965
-0.394097
-0.469598
-0.622947
-0.185184
-0.262004
-0.207514
-0.519187
-0.798405
-0.0863957
0.0186054
-0.624626
-0.0916269
-0.386638
-0.734848
0.108699
-0.185515
-0.630328
-0.5061
-0.298757
-0.609712
-0.385097
-0.179816
-0.424605
-0.655784
-0.465786
-0.146868
-0.632835
-0.119199
-0.303442
-0.157756
-0.326291
0.0281806
-0.553739
-0.578734
-0.547882
-0.448275
-0.512888
-0.163608
-0.0275668
0.183504
0.082479
-0.509496
-0.527161
-0.701298
-0.0869578
-0.590537
-0.356364
-0.11359
-0.142357
0.0456629
-0.353192
-0.221526
-0.357223
-0.261759
-0.277554
-0.182058
-0.130527
0.511354
-0.932835
-0.600727
-0.241648
0.158428
0.333856
-0.612387
0.290362
-0.441692
-0.23282
-0.465347
-0.243193
0.0154769
-0.409323
-0.00689726
0.100413
-0.382065
-0.243698
0.35017
0.0286441
-0.534184
0.285817
0.0205096
-0.632858
-0.0905487
-0.348683
-0.39628
-0.494905
0.285975
-0.108098
0.203756
-0.349874
-0.160005
0.188855
0.218608
-0.448637
-0.225551
0.313745
-0.57215
0.203636
-0.111104
0.0633402
0.086914
0.0415707
-0.389449
-0.0754017
-0.468357
0.252338
0.32476
-0.539852
-0.382948
-0.0783444
-0.360301
-0.346319
-0.170668
0.0699966
-0.149011
-0.296394
0.0918807
-0.419455
-0.470297
-0.393704
-0.0531959
0.240344
0.153556
-0.417931
0.231973
0.276764
0.0519528
-0.483834
0.0395426
-0.0561571
-0.150371
-0.55968
0.38275
0.0632912
-0.532905
-0.335844
-0.164626
0.112645
0.230395
-0.121723
0.116657
-0.0861817
-0.0906545
-0.486918
-0.2066
-0.538375
0.330793
0.0218096
0.168002
0.247456
0.271931
0.241215
-0.0461468
0.366252
0.0831233
-0.0766812
-0.0884087
0.220784
0.0778822
0.360976
-0.12534
-0.392443
-0.580201
-0.0935591
-0.413012
-0.140668
-0.419037
0.147064
-0.224502
-0.233575
-0.29627
0.309058
-0.101821
0.0265431
0.33358
-0.209112
-0.01169
-0.115567
0.202641
0.357074
-0.0612136
0.391603
-0.46186
0.0096023
-0.321398
-0.363936
-0.52424
0.0295648
0.15978
-0.205328
0.334494
0.289679
-0.103375
-0.273011
0.133857
0.204816
-0.0405319
0.260618
-0.0493371
-0.181454
-0.407972
-0.379403
-0.166732
-0.187232
0.21373
-0.0620546
0.169329
-0.0347018
0.0230147
-0.122279
-0.0968264
-0.515681
0.123512
0.131033
-0.198554
-0.561946
-0.0661979
0.226986
0.254997
0.221371
0.00743204
-0.219033
-0.494854
-0.132894
0.175671
0.109907
0.284111
-0.0118561
-0.190879
-0.23084
0.362339
0.477619
0.326506
0.0606189
-0.161811
0.124707
-0.0983283
0.38331
0.0836472
0.372878
-0.33832
-0.0314197
0.13555
-0.120946
0.18704
-0.2802
0.275308
0.390689
0.345732
-0.061565
0.499058
0.190768
-0.474477
0.0226093
-0.398781
-0.30881
-0.0822896
0.249542
0.461629
0.0590212
-0.203778
0.252256
-0.337784
-0.288856
-0.196131
0.0321692
0.41674
0.281929
0.225431
-0.094571
-0.048231
0.28674
-0.245273
-0.259048
0.212116
-0.246023
0.150512
0.482447
-0.415755
-0.402473
-0.218122
-0.439155
0.00987531
0.077652
0.399553
-0.21386
0.445554
0.233488
0.204597
-0.0280402
0.2387
-0.216804
-0.244065
0.127317
-0.389235
-0.0734595
-0.297582
0.409469
0.272426
-0.108237
0.201488
0.33194
0.203714
0.147566
0.580722
-0.0670634
-0.519088
-0.0564471
-0.461647
0.0751095
-0.552514
-0.268342
-0.672888
-0.130072
0.0432279
-0.276054
-0.420167
-0.102306
-0.42799
-0.523288
-0.124315
-0.206606
-0.506387
0.0885936
-0.308887
0.160006
-0.194997
-0.444373
0.0502526
-0.133955
0.0580743
-0.366141
0.140844
-0.383793
-0.0918568
-0.292436
-0.264196
-0.523883
-0.200718
-0.524371
-0.224236
0.158088
-0.299729
-0.438839
0.277653
0.114264
-0.234441
0.0361511
-0.635987
0.170582
-0.171992
0.23742
-0.301088
-0.219912
-0.655357
0.206897
-0.229752
-0.485847
0.17247
-0.0444513
-0.270928
-0.277753
-0.0397752
0.0789438
-0.0259489
-0.166941
-0.420278
-0.199689
-0.377296
-0.479273
0.047774
0.163121
-0.0608501
-0.315616
-0.315842
-0.559036
-0.435997
-0.245779
0.042652
-0.473621
-0.0162366
0.0467656
-0.0448192
-0.482367
-0.135337
-0.0689337
-0.0218413
0.0163609
-0.0561914
-0.264306
0.0267037
0.273779
-0.0499794
0.00538606
0.154598
-0.0692741
0.460043
0.0437393
0.433718
0.320404
0.520026
-0.0133025
-0.174541
-0.314847
0.37245
-0.232762
-0.0933043
0.359819
0.324575
-0.180803
0.283933
0.0190478
0.610494
0.632461
0.148939
0.302093
0.191056
0.0614544
0.488509
0.344569
0.193571
0.34628
0.155301
0.0921749
0.0533988
0.271042
0.140019
-0.0172156
0.70805
0.459276
-0.0214553
0.570616
-0.187335
-0.00559496
0.0981147
0.229302
-0.0411709
0.591265
0.490671
0.393986
0.386234
-0.335603
0.151011
0.178216
0.0996824
0.422732
0.518325
0.0690575
-0.0224193
0.0842668
0.343668
0.188371
0.210715
-0.180043
0.359126
0.114103
0.430621
-0.206843
-0.106552
-0.263306
-0.228764
0.212179
-0.0732177
0.143463
-0.0815391
-0.0203161
0.364443
0.38222
0.0440766
-0.352664
-0.353501
-0.417773
-0.39191
-0.266885
0.101203
-0.520937
0.0726188
0.0748783
0.182416
-0.435585
-0.537952
-0.213826
-0.515643
-0.205637
-0.421507
-0.0331675
-0.480457
0.0925698
-0.359086
-0.417912
-0.183851
-0.395009
-0.797544
-0.182547
-0.44516
0.0547102
0.0127675
-0.282362
-0.554324
0.0650855
-0.00707154
-0.367718
-0.218145
-0.629848
-0.124147
-0.318013
-0.437772
-0.404103
-0.611321
-0.0569344
-0.177115
-0.343422
-0.224714
-0.0528866
-0.0553661
-0.386111
-0.255802
-0.530211
-0.242922
-0.465794
-0.0623399
-0.215075
-0.435134
-0.0436942
-0.196413
-0.248517
0.0478475
-0.389419
-0.390072
-0.29201
-0.624233
0.188299
-0.400798
-0.0248459
-0.578527
-0.233944
-0.15977
-0.389567
-0.0860191
-0.0744446
0.121426
0.169812
0.0739233
0.142966
-0.138065
0.162669
-0.244648
-0.170936
0.225632
-0.216819
0.217309
-0.757171
0.223237
0.0866899
0.011539
0.132984
0.226418
-0.124693
-0.0933713
0.103817
0.310306
0.10194
-0.247742
-0.43857
-0.0213539
-0.2868
0.322516
-0.523564
-0.495583
-0.489423
-0.33179
-0.0295794
-0.40103
-0.285992
-0.384735
-0.0896053
0.265038
0.0963066
-0.421082
-0.455216
-0.222602
0.0654923
0.12939
0.296198
-0.344175
-0.0763845
0.0545555
-0.0290315
-0.17444
-0.204676
-0.473131
-0.102915
-0.556409
0.298949
-0.411615
-0.0181662
0.387294
-0.336795
0.132607
0.347542
-0.465049
-0.138176
-0.502541
-0.309974
-0.537202
-0.294792
0.352102
-0.269046
0.113599
-0.547744
-0.457337
-0.514722
-0.150038
-0.0383492
0.29526
-0.0800393
0.374482
-0.215571
-0.156419
-0.241514
-0.527009
-0.289164
-0.382586
-0.0383481
-0.159989
0.358991
0.316308
0.203214
-0.4704
0.058457
-0.144057
-0.343577
-0.375244
-0.326193
0.151317
-0.0202999
0.321468
-0.432254
-0.345316
-0.428116
0.00681703
-0.488067
-0.529442
-0.0793467
0.240971
-0.00803242
0.201648
0.0178446
0.0488422
0.241348
0.0630423
0.117406
0.330587
-0.386494
0.0800281
0.0693654
-0.476693
-0.150958
0.0990635
0.0712282
0.378562
-0.298103
-0.424239
-0.510339
0.259347
-0.12167
-0.202252
-0.107332
0.252679
0.352076
-0.488088
-0.502183
0.0890295
0.0418973
-0.507648
0.317095
-0.527938
-0.238728
0.0405431
0.353682
0.0726341
-0.0129134
0.11901
-0.372496
-0.18947
-0.558821
0.268102
-0.452534
0.284026
0.218138
0.00920288
0.101835
-0.232637
-0.47012
0.28219
0.0707989
-0.127336
-0.521455
-0.466742
0.300956
0.261188
-0.0244576
-0.52847
-0.559095
0.0853257
-0.323699
0.297575
-0.402819
0.219793
0.0973606
0.0470207
0.310145
-0.459222
-0.0588493
0.13638
-0.378719
-0.582069
-0.392885
0.249402
0.243551
0.186896
-0.25862
0.12172
0.218149
-0.0708132
-0.329899
-0.546133
-0.302933
-0.29708
-0.173041
-0.0754995
0.0510628
-0.467167
-0.49658
-0.50915
-0.33431
0.287798
-0.610904
-0.500096
-0.137714
0.229864
-0.183946
-0.231661
-0.204833
0.206111
-0.439667
-0.434883
-0.426392
-0.346935
0.0582726
0.151914
0.121783
-0.227584
-0.164647
-0.0212772
-0.530372
-0.50318
-0.362589
0.00928698
-0.163256
-0.195502
-0.0238721
-0.166867
-0.139523
0.10112
0.187461
-0.549375
-0.336983
-0.0122167
-0.22229
-0.458328
0.0636844
-0.169569
-0.125556
0.2772
-0.514838
-0.49133
-0.384966
0.225092
0.172713
-0.17023
-0.189839
0.0141387
-0.22402
-0.353485
-0.508219
-0.136822
-0.13198
0.0793181
0.198321
-0.149871
-0.058215
0.159887
-0.0592482
0.236162
0.325565
-0.289684
0.0541114
0.128179
-0.236354
-0.0573018
0.0985379
-0.210139
0.0556052
-0.230545
0.243354
0.146341
-0.153301
-0.218859
-0.199328
-0.26009
0.125352
0.125097
0.349725
0.432798
-0.317381
-0.0369492
-0.419323
0.186341
0.0247271
-0.374264
0.436532
-0.484201
0.256856
0.192455
0.0471945
-0.166655
-0.231239
0.321413
-0.0172127
-0.00612942
-0.242214
0.0357491
0.358949
0.10973
-0.416548
0.251959
-0.0658045
-0.234085
0.215089
-0.194038
0.329807
0.454885
-0.302196
-0.246355
0.374007
0.0822256
-0.20071
-0.450529
-0.228317
0.444485
-0.189548
0.363588
0.394117
0.530187
0.177873
0.227322
0.452323
-0.358468
0.0558892
-0.206532
-0.359061
-0.205791
-0.00413999
-0.433601
0.507828
-0.17708
-0.253257
0.0374678
-0.44602
0.35703
0.482826
0.176281
0.177581
0.365669
0.264219
0.0544954
-0.34019
-0.130501
-0.699933
0.066363
0.2032
-0.371465
-0.189464
-0.341723
-0.0034457
0.0372663
-0.538641
0.14519
0.0626868
-0.107363
-0.304683
-0.0513674
-0.206789
-0.743727
-0.345513
0.135348
-0.341101
-0.342296
0.0405718
-0.641493
-0.531497
-0.737176
-0.222387
-0.412725
-0.294647
-0.333934
-0.534775
-0.51106
-0.545899
-0.720851
-0.440093
-0.665323
-0.246293
0.0306293
-0.117639
0.0281254
-0.254116
-0.382437
-0.244211
-0.769479
-0.419909
-0.658473
0.0250301
-0.453105
-0.243911
-0.540121
0.0398655
-0.745087
-0.0756508
-0.478751
-0.571681
-0.219406
-0.170475
-0.319252
-0.106542
-0.356291
-0.205475
-0.611911
-0.718742
-0.2483
-0.511454
-0.0585668
-0.13382
-0.0478063
-0.102882
-0.206777
-0.402324
-0.10391
-0.464398
-0.763001
-0.343877
-0.166042
-0.574252
-0.0810427
-0.053344
0.000442447
-0.418483
0.189212
-0.0841123
0.00917236
-0.151153
-0.122734
0.355243
-0.267595
0.0783126
0.348734
-0.204619
0.381947
-0.184791
0.197057
0.374761
0.385733
0.309599
0.0984934
0.462462
0.520876
0.271015
0.336745
-0.0582687
0.233848
0.00942018
0.0246962
0.345028
0.440643
0.476065
0.462903
0.332649
0.451632
0.255332
0.152331
0.530422
0.367892
0.393044
0.23159
0.28411
0.431749
-0.106199
0.209903
0.535356
0.0926314
0.341603
0.658233
0.0802241
0.231499
-0.0414465
0.552545
0.301025
0.420466
0.29367
0.558485
0.428313
0.334346
0.184731
-0.0745234
-0.0384615
0.347714
0.163398
0.274648
0.19156
0.247818
0.61653
0.200806
0.0757622
0.299734
0.449789
0.276039
0.468214
0.273127
0.23668
0.0305939
0.0880481
0.295248
0.151108
0.407227
0.0995043
0.270114
-0.0727944
0.232977
-0.0603308
0.0523719
0.233965
-0.497919
-1.06865
0.344859
0.0503287
0.139537
-0.459493
-0.267715
0.124058
-0.400257
0.0189045
0.0227525
-0.0218264
-0.27886
0.0458627
-0.359254
-0.307645
-0.0127004
0.114602
0.0805054
0.19072
-0.021863
0.303303
-0.137725
-0.264045
0.21475
0.123867
-0.109277
-0.280289
0.0104087
0.508911
-0.295235
0.297466
-0.0325079
-0.36871
0.0730766
-0.287188
0.0575808
-0.108105
0.357322
-0.276636
0.319371
0.101227
-0.350204
-0.224839
-0.0745001
0.234642
0.153199
0.358727
0.0264592
0.323878
-0.0680032
-0.120429
-0.370132
-0.292531
0.360626
0.380313
0.326584
0.156457
0.465202
-0.209649
0.448247
0.268486
-0.125133
0.00741411
-0.112913
0.254433
0.280398
0.0486813
0.157519
-0.253669
0.320262
0.395231
0.446154
-0.0235421
-0.0617777
0.270739
0.459612
0.14698
0.271697
0.300774
0.194565
0.0618859
0.0224278
-0.478756
-0.2207
-0.0194078
-0.460003
0.076108
0.0534559
0.273705
0.198682
0.131841
0.0799351
-0.35941
-0.434996
0.021815
-0.625473
-0.193568
0.208786
-0.512996
0.148272
-0.261402
0.00948911
-0.153515
-0.094659
0.268384
0.346418
0.263138
0.156951
-0.132909
-0.108924
-0.23706
-0.296824
-0.292213
-0.239563
0.111411
-0.312188
0.212818
-0.347472
-0.638904
-0.221552
-0.274239
-0.491479
0.218905
-0.302183
0.258221
0.192755
-0.426299
-0.309741
-0.640416
-0.477416
-0.510796
-0.293341
-0.427852
0.0881962
-0.437343
-0.0126866
0.0433144
-0.0354507
0.0977503
-0.714555
-0.343673
-0.184679
-0.177814
-0.402327
-0.723757
-0.0922857
-0.130817
-0.129619
-0.194026
-0.293209
-0.316302
-0.621389
-0.581104
-0.229443
0.0777157
-0.494571
0.0229837
-0.0743899
-0.211149
-0.398609
-0.485556
-0.413667
0.0625141
0.0512634
-0.293738
-0.419555
-0.591784
-0.0909065
-0.369299
0.0153436
-0.00591376
0.0524878
0.117863
-0.307442
0.0560567
-0.308375
-0.358093
0.073771
-0.19217
-0.197092
-0.395116
-0.190512
-0.22651
-0.219182
0.0459793
-0.00648822
0.123899
-0.53949
-0.352397
0.0901882
-0.325791
-0.242678
-0.37006
0.17005
-0.346456
-0.5037
-0.190333
-0.413651
-0.0337388
-0.155233
-0.197005
-0.372394
-0.39603
0.0382919
-0.439254
-0.287929
0.101495
-0.0758772
-0.321482
-0.465525
-0.379799
-0.197287
-0.193143
-0.0679646
0.0828682
-0.260851
-0.46863
-0.432136
-0.408985
-0.28274
-0.428279
0.055005
-0.221801
0.184812
0.0422278
0.0599275
-0.324995
0.256235
-0.0784163
0.149078
-0.42539
-0.38673
-0.127937
-0.331964
-0.50503
-0.240278
-0.310803
0.333291
-0.130002
0.135078
-0.421816
-0.420681
-0.325413
-0.182378
-0.326942
-0.315263
0.13884
-0.209165
0.136272
-0.035443
0.0612417
-0.0240871
0.24156
-0.211854
0.294566
-0.149894
-0.0596841
0.114991
0.0145175
-0.0288457
0.347594
-0.224353
0.129565
0.0809859
-0.222465
0.0970885
0.242429
0.114227
-0.111285
-0.0457077
-0.152918
-0.240039
-0.0426032
0.194152
0.290528
0.0942538
0.097582
0.382016
0.195676
0.232471
-0.325835
-0.0397636
0.142558
0.290799
0.313103
0.0480764
0.139569
0.290487
-0.210747
0.383698
-0.471978
0.327072
0.218317
0.0693984
0.383683
-0.0131735
0.195012
-0.218155
-0.178138
0.244164
0.213774
0.0262987
-0.206996
0.12446
0.081298
0.144913
0.248522
-0.0201261
0.243379
-0.130565
0.0977394
0.256512
-0.125461
-0.0930237
0.235689
-0.143419
0.31668
-0.19873
0.270598
0.184074
0.193643
-0.251995
0.136422
0.345735
0.0114769
-0.220729
0.242783
0.597116
0.739781
-0.114731
0.256345
0.184595
0.286471
0.326732
-0.154942
-0.224091
-0.336795
-0.1549
0.377999
0.206694
-0.3451
0.0532463
0.172006
-0.0520054
0.147462
0.450652
-0.00638634
-0.356237
0.0732647
0.192219
0.110209
-0.264697
-0.0847586
0.0536834
0.320397
-0.186773
-0.122216
0.274442
0.0746118
-0.0125204
-0.0092388
0.307165
0.241669
-0.270019
0.189315
0.297048
-0.0572034
0.523356
0.412121
-0.0170479
0.340398
0.34695
-0.0364647
-0.251125
0.376918
-0.302407
-0.319216
-0.102168
-0.226349
-0.122602
0.137799
0.194706
-0.277066
0.485325
0.126382
0.437198
0.195855
-0.3876
-0.206944
0.484664
0.375036
0.433557
0.324887
0.036445
-0.248719
0.22618
0.167284
0.47591
-0.361698
-0.4548
-0.0181987
0.00163229
0.417928
0.379448
0.388578
-0.420667
-0.325223
0.352215
0.228109
0.339559
-0.0815425
-0.529508
-0.506138
0.253538
-0.544729
-0.148129
-0.179503
-0.0400635
-0.462698
-0.205893
-0.431983
-0.414328
-0.0805973
0.0589712
-0.323355
0.156986
0.0392908
-0.270613
0.0622136
0.227328
-0.44353
-0.674398
0.111149
-0.127347
-0.210523
-0.318967
-0.33798
-0.409371
-0.342765
-0.0616677
-0.147575
0.0521428
-0.307072
-0.244255
-0.611857
0.173938
-0.400644
0.148904
-0.629986
-0.223788
-0.245329
-0.125437
-0.291439
-0.137008
-0.191809
0.0145059
-0.168473
-0.242
-0.23888
0.115371
-0.599778
-0.374571
-0.297931
0.144908
0.157282
-0.542803
-0.239964
-0.138409
-0.326616
-0.589946
-0.605492
-0.0334371
0.414937
-0.0657594
0.310493
-0.257726
0.0178403
0.184696
-0.605392
-0.136038
-0.0103145
-0.428587
-0.218487
0.243591
-0.226559
0.328144
-0.0966822
0.20891
-0.0152219
-0.10262
0.149594
0.110524
-0.891314
-0.397247
0.221481
0.193547
0.14672
0.129853
-0.549638
0.239807
0.354707
-0.115638
-0.140733
-0.239205
-0.525499
0.343525
-0.0615679
-0.471739
0.0488047
0.36332
-0.110883
-0.395194
0.0270052
-0.0939338
-0.477134
-0.508957
-0.136176
-0.0215301
0.11438
0.159364
-0.500151
-0.511791
0.0740755
-0.307402
-0.221311
-0.29233
-0.49628
-0.412298
-0.397843
-0.155285
0.197071
-0.0756604
-0.0795073
-0.46225
0.121711
-0.0459405
-0.266681
0.355306
0.39088
-0.0753964
-0.370708
-0.143483
-0.124313
-0.390953
-0.348484
-0.0896218
-0.506967
-0.418163
-0.571796
0.145185
0.293463
-0.554479
0.121314
-0.217387
0.115895
0.222438
-0.0149844
-0.362958
-0.59748
0.322133
0.301651
-0.0755772
-0.0984353
-0.32688
-0.244301
-0.0691482
0.353228
0.273539
0.0400912
-0.463452
-0.448188
-0.195156
0.390481
0.130607
0.0587943
0.279049
0.187038
-0.413164
0.129553
0.0022002
0.101104
-0.150948
-0.44427
0.00530929
-0.382133
0.253076
0.265776
0.22091
-0.552559
-0.00481496
0.141487
-0.47384
-0.366952
0.297785
-0.025975
-0.396395
-0.235868
0.360648
-0.141843
0.368483
0.20953
-0.0597955
0.011641
0.297671
0.0601901
-0.232619
-0.0818524
0.296625
0.320984
-0.176731
0.0126551
-0.529133
0.0531165
-0.310626
-0.38608
-0.413413
-0.119322
0.14582
-0.286124
0.0749386
-0.562345
-0.550188
0.335289
-0.229635
-0.399968
-0.237883
0.34935
0.22805
-0.557543
0.154417
-0.139341
-0.0660874
0.101925
-0.198496
-0.123303
-0.387923
-0.272585
-0.111869
0.228141
-0.119037
-0.199336
0.225649
-0.0342045
-0.466483
-0.244502
-0.400116
0.319407
-0.281544
-0.466871
-0.448479
-0.102124
-0.515902
-0.0306329
-0.198726
0.268372
0.00919297
0.00754629
0.0971741
-0.0857907
0.579844
0.257894
0.438942
0.487906
0.396306
0.192536
0.231115
0.219168
0.595111
0.457245
0.389447
0.625989
0.33947
0.489024
0.0701922
0.18577
0.444118
0.692819
0.293447
0.393922
0.334887
0.693979
0.241367
0.192043
0.165838
0.612243
0.463904
0.1798
0.390953
0.583081
0.738693
0.634398
0.31394
0.36365
0.184143
0.35282
0.369407
0.462301
0.55627
0.755744
0.189342
0.362168
0.541547
-0.0641282
0.723705
0.336726
0.716045
0.415528
0.506724
0.210191
0.48028
0.00376964
0.258168
0.237806
0.146876
0.516262
0.720511
0.407163
0.660667
0.394214
-0.14261
0.151096
-0.0840281
0.47319
0.160779
0.394081
0.477955
0.466944
0.224086
0.226932
0.0852433
0.364
0.248539
0.252298
0.258499
-0.0261208
0.499875
0.313258
0.176592
0.0986616
-0.114344
-0.534567
-0.141528
-0.248756
-0.201352
-0.256661
-0.384691
-0.292356
-0.097049
-0.273247
-0.194035
-0.286373
-0.332113
-0.381363
-0.316415
-0.43737
-0.199495
-0.342347
-0.263755
-0.465268
-0.481419
-0.613679
-0.377276
-0.558796
-0.257726
-0.340148
-0.307748
-0.797362
-0.248074
-0.752719
-0.641352
-0.271516
-0.553615
-0.31045
-0.236828
-0.271891
-0.340689
-0.560391
-0.716415
-0.358427
-0.595236
-0.401224
-0.750367
-0.175023
-0.0897816
-0.593627
-0.646965
-0.49866
-0.522382
-0.649122
-0.621067
-0.851463
-0.0380213
-0.251781
-0.257167
-0.540082
-0.822624
-0.159847
-0.519449
-0.528904
-0.557225
-0.406572
-0.495602
-0.302256
-0.418056
-0.605594
-0.202468
-0.243442
-0.602075
-0.405955
-0.40192
-0.219566
-0.102832
-0.329989
-0.166162
-0.338021
-0.423382
-0.399405
-0.335077
-0.0130808
0.539038
-1.84234
0.325828
0.27718
-0.433516
-0.311746
0.285745
0.295289
0.0574969
-0.446082
0.468678
-0.268649
-0.352241
-0.119118
0.183523
-0.451654
-0.372857
0.310643
0.0463486
0.211206
0.0976455
-0.0766888
-0.353693
-0.406509
0.0356481
-0.262492
0.161587
-0.188144
-0.0248775
-0.00277111
0.309248
0.011358
-0.536541
-0.598265
0.0760843
0.0527755
-0.404983
-0.025643
0.213423
0.104519
0.0211494
-0.174235
-0.409327
-0.145087
0.169958
0.180582
0.162135
-0.0073705
-0.304555
-0.273523
-0.19839
-0.412489
0.0176818
0.276565
-0.123676
-0.254047
0.221158
0.338715
-0.552903
-0.00493632
-0.0867112
0.00403986
-0.514525
-0.25328
-0.120102
-0.253958
-0.252407
0.0756392
-0.053657
0.0139379
0.175695
-0.43344
0.167716
-0.0614661
0.433127
-0.197565
-0.355944
0.26286
0.178079
-0.330072
-0.0633215
0.224143
-0.0167597
0.0810243
-0.309091
-0.301945
-0.341018
-0.486336
-0.533177
-0.506411
0.0356809
-0.39771
0.21737
-0.453752
-0.0653376
-0.153131
0.328844
-0.0104656
-0.0116556
0.314175
-0.310182
0.343991
0.216856
-0.433155
-0.108559
-0.280207
0.023166
-0.385596
-0.210822
0.16947
-0.332225
-0.172872
0.340344
-0.163125
-0.287321
0.368455
0.20127
-0.23999
-0.455095
-0.322279
-0.0295519
-0.361805
0.371651
0.05313
0.0695407
-0.128831
0.371621
0.250486
0.0403894
0.337184
0.13527
-0.490256
-0.15981
0.133969
-0.250843
0.419524
-0.137086
-0.441098
-0.0447789
-0.0348433
0.258008
-0.297287
0.00677918
0.201936
0.218698
-0.125287
-0.446945
0.310338
0.128204
0.158045
-0.168136
-0.466729
-0.154972
-0.546234
-0.594179
-0.484424
0.0723957
-0.412752
-0.339554
-0.152023
-0.317929
0.160197
-0.118467
0.187422
-0.183986
-0.520017
-0.0751767
-0.00377199
0.133603
-0.0927652
-0.128296
-0.526823
-0.100546
-0.0465864
0.326782
0.266914
-0.195445
0.452531
0.438626
-0.436173
-0.449203
-0.129039
0.357541
-0.429325
-0.249035
-0.410018
-0.247994
-0.00727191
-0.162795
-0.643925
0.33601
0.387731
-0.573418
0.64384
0.0509609
0.243829
0.268565
0.0188397
-0.0650403
-0.402238
0.305306
-0.258459
0.17178
0.0298517
0.693318
0.222697
0.104334
