-0.360727
-0.0584005
-0.363532
-0.340671
-0.367735
-0.219176
-0.295206
0.168137
0.212013
-0.233392
-0.142096
-0.0838085
-0.184215
-0.456022
-0.169059
-0.139147
0.154405
0.143932
-0.372891
-1.98818e+71
-1.98818e+71
-0.323619
0.21701
-0.456697
-0.015967
0.360291
-0.474063
-0.398259
-0.12559
-0.271649
0.104198
-0.416716
0.10319
0.0558691
-0.427934
-1.98818e+71
0.187327
0.0265767
-0.385117
-0.0461671
-1.98818e+71
-1.98818e+71
-0.697828
-0.350219
0.00493933
-0.016041
0.279234
-1.98818e+71
0.285957
-1.98818e+71
-1.98818e+71
0.00936631
-1.98818e+71
0.128258
0.0826066
0.127319
-1.98818e+71
-1.98818e+71
-0.284769
-0.117021
-0.351125
-1.98818e+71
0.207314
0.256891
-0.32186
-0.251279
-0.30483
0.158461
0.0314453
0.0108706
-0.264092
-0.210114
-0.0312721
0.119429
-0.018431
-0.233563
0.142057
-0.170828
-0.261399
-0.441122
-0.133699
-0.297776
-1.98818e+71
-1.98818e+71
-0.559243
-1.98818e+71
-1.98818e+71
-1.98818e+71
-1.98818e+71
0.0950461
-1.98818e+71
-1.98818e+71
-1.98818e+71
-1.98818e+71
-1.98818e+71
-0.354235
-1.98818e+71
-1.98818e+71
-1.98818e+71
-1.98818e+71
0.0774522
-0.352848
-1.98818e+71
-1.98818e+71
-1.98818e+71
-1.98818e+71
-1.98818e+71
-0.148131
-1.98818e+71
-0.2345
-1.98818e+71
-1.98818e+71
-1.98818e+71
-1.98818e+71
-1.98818e+71
-1.98818e+71
0.308844
-1.98818e+71
-0.303702
-1.98818e+71
-1.98818e+71
-0.037276
0.187266
-1.98818e+71
-0.514246
-1.98818e+71
-1.98818e+71
-1.98818e+71
-0.0357181
0.254498
-0.213204
-0.380728
-1.98818e+71
0.153125
-1.98818e+71
-0.230876
-1.98818e+71
-0.592389
0.103806
-1.98818e+71
-1.98818e+71
-1.98818e+71
-0.535052
-1.98818e+71
-1.98818e+71
-1.98818e+71
-1.98818e+71
-1.98818e+71
-1.98818e+71
-1.98818e+71
0.29271
-1.98818e+71
-1.98818e+71
0.251882
-1.98818e+71
-0.213366
-1.98818e+71
-1.98818e+71
-0.146647
-1.98818e+71
-1.98818e+71
-0.0278387
-1.30376
-1.98818e+71
0.113018
0.00609933
0.500491
0.369961
-0.303467
0.249171
0.0303828
0.503857
0.258971
0.317348
0.289861
0.108512
0.131161
0.652309
0.340836
0.590105
0.296459
0.122627
0.301878
8.61004e+70
8.61004e+70
0.348824
-0.0239242
0.00853064
-0.296898
0.504805
0.179014
0.111977
0.237445
0.45909
0.175865
-0.307613
0.0386314
-0.307929
-0.062676
8.61004e+70
0.550264
0.116672
0.217202
0.139231
8.61004e+70
8.61004e+70
0.124625
0.0824865
-0.0532892
0.0458277
-0.00434771
8.61004e+70
0.482776
8.61004e+70
8.61004e+70
0.305982
8.61004e+70
0.449945
0.486313
0.383271
8.61004e+70
8.61004e+70
0.287552
0.167629
0.340303
8.61004e+70
0.0405336
0.230841
-0.340863
-0.00913753
0.573569
0.424846
0.270841
-0.247149
-0.339502
0.0764619
0.324054
0.0421513
-0.112742
0.484229
-0.0660343
-0.384464
0.0674108
0.420946
0.132803
0.527441
8.61004e+70
8.61004e+70
-0.0928861
8.61004e+70
8.61004e+70
8.61004e+70
8.61004e+70
-0.0198737
8.61004e+70
8.61004e+70
8.61004e+70
8.61004e+70
8.61004e+70
0.121782
8.61004e+70
8.61004e+70
8.61004e+70
8.61004e+70
0.142814
0.434971
8.61004e+70
8.61004e+70
8.61004e+70
8.61004e+70
8.61004e+70
0.52329
8.61004e+70
-0.0858869
8.61004e+70
8.61004e+70
8.61004e+70
8.61004e+70
8.61004e+70
8.61004e+70
0.200383
8.61004e+70
0.311656
8.61004e+70
8.61004e+70
-0.307601
-0.0852893
8.61004e+70
-0.189985
8.61004e+70
8.61004e+70
8.61004e+70
-0.0505962
0.495373
0.120803
0.399811
8.61004e+70
0.0689293
8.61004e+70
0.497455
8.61004e+70
0.184259
-0.282701
8.61004e+70
8.61004e+70
8.61004e+70
-0.347291
8.61004e+70
8.61004e+70
8.61004e+70
8.61004e+70
8.61004e+70
8.61004e+70
8.61004e+70
-0.312692
8.61004e+70
8.61004e+70
0.210457
8.61004e+70
-0.181659
8.61004e+70
8.61004e+70
-0.288983
8.61004e+70
8.61004e+70
-0.227405
-0.53243
8.61004e+70
-0.283812
-0.445306
-0.35507
-0.667365
-0.533108
0.153134
0.0163777
-0.425319
-0.119355
-0.56897
-0.341045
-0.517463
-0.407653
-0.440256
-0.393307
0.0106177
0.118277
-0.344543
0.188479
-2.77681e+72
-2.77681e+72
-0.12378
-0.49631
0.146176
-0.501326
-0.0760051
-0.468331
-0.235485
0.242528
-0.0479165
-0.133443
-0.384919
-0.47743
-0.237246
-0.19711
-2.77681e+72
0.106118
-0.194331
-0.327565
0.286045
-2.77681e+72
-2.77681e+72
0.0526116
-0.0412238
-0.553813
-0.328229
-0.540262
-2.77681e+72
0.21277
-2.77681e+72
-2.77681e+72
-0.522043
-2.77681e+72
-0.377727
-0.405782
-0.189133
-2.77681e+72
-2.77681e+72
-0.274859
-0.325123
-0.282752
-2.77681e+72
-0.395487
-0.363986
-0.106779
-0.107079
-0.72425
-0.449254
0.280736
-0.0365852
-0.549722
-0.101037
0.159549
-0.0717198
-0.201022
-0.450595
-0.0459955
0.295501
-0.465794
-0.186825
0.17785
-0.294495
-2.77681e+72
-2.77681e+72
-0.349445
-2.77681e+72
-2.77681e+72
-2.77681e+72
-2.77681e+72
-0.242441
-2.77681e+72
-2.77681e+72
-2.77681e+72
-2.77681e+72
-2.77681e+72
0.115234
-2.77681e+72
-2.77681e+72
-2.77681e+72
-2.77681e+72
-0.406972
-0.283377
-2.77681e+72
-2.77681e+72
-2.77681e+72
-2.77681e+72
-2.77681e+72
0.0229385
-2.77681e+72
0.263722
-2.77681e+72
-2.77681e+72
-2.77681e+72
-2.77681e+72
-2.77681e+72
-2.77681e+72
-0.398598
-2.77681e+72
-0.276151
-2.77681e+72
-2.77681e+72
-0.628957
-0.286507
-2.77681e+72
-0.171784
-2.77681e+72
-2.77681e+72
-2.77681e+72
0.28441
0.169871
0.272181
-0.0589189
-2.77681e+72
0.234609
-2.77681e+72
-0.424408
-2.77681e+72
-0.359401
-0.235097
-2.77681e+72
-2.77681e+72
-2.77681e+72
0.293649
-2.77681e+72
-2.77681e+72
-2.77681e+72
-2.77681e+72
-2.77681e+72
-2.77681e+72
-2.77681e+72
0.0294618
-2.77681e+72
-2.77681e+72
-0.451292
-2.77681e+72
-0.266553
-2.77681e+72
-2.77681e+72
0.0275118
-2.77681e+72
-2.77681e+72
-0.000239899
0.431843
-2.77681e+72
-0.00842009
-0.0329579
-0.275769
0.0958201
0.174412
-0.0336027
-0.0481227
-0.178049
0.0746271
-0.0552676
-0.069068
-0.233392
0.065822
-0.29186
-0.274538
0.389356
-0.567484
-0.420017
0.0876632
-6.62406e+71
-6.62406e+71
-0.261834
0.0439306
0.563217
0.188816
-0.340327
-0.187674
-0.052664
-0.180495
0.380961
0.0390981
-0.17992
-0.0397831
-0.158004
0.0250724
-6.62406e+71
-0.116297
0.0559051
0.133359
0.0352051
-6.62406e+71
-6.62406e+71
-0.324221
-0.353761
-0.571553
0.126729
-0.0492071
-6.62406e+71
0.120966
-6.62406e+71
-6.62406e+71
0.156358
-6.62406e+71
-0.089177
-0.394522
-0.28749
-6.62406e+71
-6.62406e+71
-0.169344
0.116841
-0.337275
-6.62406e+71
-0.254205
-0.321839
-0.438048
-0.0315725
0.580444
-0.0578681
-0.33161
-0.292537
0.0235525
0.101833
-0.182755
0.0108642
0.0179723
0.136417
-0.113714
-0.354488
0.226354
-0.239397
-0.296958
0.0816308
-6.62406e+71
-6.62406e+71
-0.529837
-6.62406e+71
-6.62406e+71
-6.62406e+71
-6.62406e+71
-0.159623
-6.62406e+71
-6.62406e+71
-6.62406e+71
-6.62406e+71
-6.62406e+71
-0.329841
-6.62406e+71
-6.62406e+71
-6.62406e+71
-6.62406e+71
0.0566064
-0.394515
-6.62406e+71
-6.62406e+71
-6.62406e+71
-6.62406e+71
-6.62406e+71
0.200602
-6.62406e+71
-0.392931
-6.62406e+71
-6.62406e+71
-6.62406e+71
-6.62406e+71
-6.62406e+71
-6.62406e+71
-0.060443
-6.62406e+71
-0.334226
-6.62406e+71
-6.62406e+71
-0.0347988
-0.310022
-6.62406e+71
-0.358574
-6.62406e+71
-6.62406e+71
-6.62406e+71
-0.442891
-0.359306
-0.509799
0.351466
-6.62406e+71
-0.286533
-6.62406e+71
-0.241406
-6.62406e+71
-0.00440044
0.0345457
-6.62406e+71
-6.62406e+71
-6.62406e+71
-0.0120237
-6.62406e+71
-6.62406e+71
-6.62406e+71
-6.62406e+71
-6.62406e+71
-6.62406e+71
-6.62406e+71
0.0194308
-6.62406e+71
-6.62406e+71
-0.241957
-6.62406e+71
-0.0930672
-6.62406e+71
-6.62406e+71
-0.352196
-6.62406e+71
-6.62406e+71
0.366213
-2.34802
-6.62406e+71
-0.495643
0.207569
0.0820776
0.0336915
-0.242678
0.0103218
0.250875
0.0799806
-0.0725382
0.118369
-0.583825
-0.630159
-0.0799175
-0.345159
-0.103262
-0.287468
0.0436444
-0.422531
0.0324816
-1.81498e+72
-1.81498e+72
0.281625
0.323328
-0.153604
-0.196081
-0.435388
0.126324
0.242353
0.338164
0.126649
-0.27813
-0.328052
0.0671578
0.247077
-0.451782
-1.81498e+72
-0.449059
-0.187649
0.0111719
-0.521364
-1.81498e+72
-1.81498e+72
0.157151
-0.540504
0.175804
0.0458086
-0.331596
-1.81498e+72
-0.571359
-1.81498e+72
-1.81498e+72
0.358879
-1.81498e+72
-0.469428
-0.168837
-0.314893
-1.81498e+72
-1.81498e+72
0.0869682
-0.00396149
0.41418
-1.81498e+72
-0.46248
0.253608
0.237249
0.23446
0.32061
-0.59248
-0.531275
-0.126647
-0.157519
0.0813909
0.0911107
0.0375505
-0.0124728
-0.386894
-0.35234
0.260422
0.365452
-0.132008
-0.137814
0.0140974
-1.81498e+72
-1.81498e+72
0.246628
-1.81498e+72
-1.81498e+72
-1.81498e+72
-1.81498e+72
-0.0736132
-1.81498e+72
-1.81498e+72
-1.81498e+72
-1.81498e+72
-1.81498e+72
-0.461127
-1.81498e+72
-1.81498e+72
-1.81498e+72
-1.81498e+72
-0.23242
-0.0437364
-1.81498e+72
-1.81498e+72
-1.81498e+72
-1.81498e+72
-1.81498e+72
-0.481165
-1.81498e+72
0.300297
-1.81498e+72
-1.81498e+72
-1.81498e+72
-1.81498e+72
-1.81498e+72
-1.81498e+72
-0.309236
-1.81498e+72
0.308028
-1.81498e+72
-1.81498e+72
-0.179885
0.202156
-1.81498e+72
-0.0290119
-1.81498e+72
-1.81498e+72
-1.81498e+72
-0.0402425
0.389805
-0.0414787
-0.233994
-1.81498e+72
-0.174032
-1.81498e+72
-0.548886
-1.81498e+72
-0.379622
-0.10914
-1.81498e+72
-1.81498e+72
-1.81498e+72
-0.0781647
-1.81498e+72
-1.81498e+72
-1.81498e+72
-1.81498e+72
-1.81498e+72
-1.81498e+72
-1.81498e+72
0.23458
-1.81498e+72
-1.81498e+72
0.140535
-1.81498e+72
-0.317765
-1.81498e+72
-1.81498e+72
-0.11916
-1.81498e+72
-1.81498e+72
0.3278
1.41744
-1.81498e+72
-0.383771
-0.390709
0.299799
0.30579
0.288638
-0.363988
0.168984
-0.302599
-0.438362
-0.371935
-0.352009
-0.346061
-0.425773
-0.105478
-0.00176561
-0.246211
-0.387246
-0.37249
-0.200392
1.97053e+71
1.97053e+71
0.17045
-0.0511468
-0.704032
-0.132059
0.0908884
0.208767
-0.198725
-0.1578
-0.215788
-0.117465
0.0324643
-0.067984
0.169717
-0.191268
1.97053e+71
0.280451
0.0842081
0.0883419
0.240467
1.97053e+71
1.97053e+71
-0.0731446
0.135189
0.26692
0.385933
0.261055
1.97053e+71
-0.179758
1.97053e+71
1.97053e+71
-0.0884878
1.97053e+71
-0.450912
-0.0814399
0.228952
1.97053e+71
1.97053e+71
-0.238781
0.0630452
-0.169367
1.97053e+71
0.244391
-0.45307
-0.0788684
0.156019
-0.357847
-0.605271
-0.567552
-0.111126
0.105124
0.0945704
0.0643086
-0.138289
-0.268625
0.109234
-0.335972
0.0792667
0.251469
-0.113887
-0.310318
-0.253788
1.97053e+71
1.97053e+71
-0.457388
1.97053e+71
1.97053e+71
1.97053e+71
1.97053e+71
0.453834
1.97053e+71
1.97053e+71
1.97053e+71
1.97053e+71
1.97053e+71
-0.319142
1.97053e+71
1.97053e+71
1.97053e+71
1.97053e+71
-0.447569
0.392453
1.97053e+71
1.97053e+71
1.97053e+71
1.97053e+71
1.97053e+71
-0.382573
1.97053e+71
-0.440062
1.97053e+71
1.97053e+71
1.97053e+71
1.97053e+71
1.97053e+71
1.97053e+71
-0.124269
1.97053e+71
-0.203798
1.97053e+71
1.97053e+71
-0.391451
0.342204
1.97053e+71
0.413994
1.97053e+71
1.97053e+71
1.97053e+71
0.0174787
0.464683
0.264341
-0.42404
1.97053e+71
0.0870465
1.97053e+71
0.345472
1.97053e+71
0.142123
-0.477265
1.97053e+71
1.97053e+71
1.97053e+71
-0.222193
1.97053e+71
1.97053e+71
1.97053e+71
1.97053e+71
1.97053e+71
1.97053e+71
1.97053e+71
-0.0598524
1.97053e+71
1.97053e+71
0.0654425
1.97053e+71
-0.361825
1.97053e+71
1.97053e+71
-0.340415
1.97053e+71
1.97053e+71
0.241497
1.85775
1.97053e+71
-0.23516
0.400004
0.013691
0.0687205
-0.0919751
0.115274
-0.240506
-0.537524
-0.125032
0.287045
0.176333
-0.361055
-0.00319232
-0.0735143
0.179028
0.0878665
0.181544
-0.0024005
-0.251776
-1.05086e+74
-1.05086e+74
-0.347886
0.435184
0.0459079
0.228789
-0.48267
-0.299495
-0.199588
0.181667
-0.141506
0.19022
0.296692
0.350998
-0.18928
-0.217475
-1.05086e+74
-0.0578707
-0.157569
0.360929
0.447354
-1.05086e+74
-1.05086e+74
0.233904
0.233787
0.301715
-0.00778472
0.0556519
-1.05086e+74
-0.529692
-1.05086e+74
-1.05086e+74
-0.110072
-1.05086e+74
0.101945
0.32408
-0.212063
-1.05086e+74
-1.05086e+74
0.0287359
0.160079
-0.249074
-1.05086e+74
-0.159267
0.2519
0.407771
-0.135112
-0.0634947
-0.316881
-0.29884
-0.422685
-0.364298
0.316949
0.135257
0.0768667
0.117076
-0.371741
0.297742
0.2897
-0.0902518
-0.3388
-0.484508
0.554398
-1.05086e+74
-1.05086e+74
0.223981
-1.05086e+74
-1.05086e+74
-1.05086e+74
-1.05086e+74
0.51159
-1.05086e+74
-1.05086e+74
-1.05086e+74
-1.05086e+74
-1.05086e+74
0.315396
-1.05086e+74
-1.05086e+74
-1.05086e+74
-1.05086e+74
-0.200895
-0.205496
-1.05086e+74
-1.05086e+74
-1.05086e+74
-1.05086e+74
-1.05086e+74
-0.138761
-1.05086e+74
-0.397214
-1.05086e+74
-1.05086e+74
-1.05086e+74
-1.05086e+74
-1.05086e+74
-1.05086e+74
0.00040415
-1.05086e+74
-0.352892
-1.05086e+74
-1.05086e+74
-0.120391
0.131928
-1.05086e+74
0.0948462
-1.05086e+74
-1.05086e+74
-1.05086e+74
0.118226
-0.338985
0.535985
-0.026385
-1.05086e+74
0.209092
-1.05086e+74
-0.128497
-1.05086e+74
-0.537626
-0.296395
-1.05086e+74
-1.05086e+74
-1.05086e+74
0.449435
-1.05086e+74
-1.05086e+74
-1.05086e+74
-1.05086e+74
-1.05086e+74
-1.05086e+74
-1.05086e+74
0.351447
-1.05086e+74
-1.05086e+74
-0.0101831
-1.05086e+74
-0.382447
-1.05086e+74
-1.05086e+74
-0.0186648
-1.05086e+74
-1.05086e+74
-0.00723184
1.82009
-1.05086e+74
-0.287135
0.277048
0.333191
0.163858
-0.0326496
0.0971688
-0.0954011
0.598721
0.0536609
0.691016
0.454803
0.628233
-0.202756
0.66777
-0.172925
0.400508
0.292566
0.0927929
0.400774
-1.19563e+72
-1.19563e+72
0.572462
0.432312
0.310631
0.106915
0.151465
0.0796179
0.392209
0.00868294
-0.330401
0.437301
-0.211356
-0.113093
0.105454
0.253789
-1.19563e+72
0.280806
0.141486
0.354902
0.0122937
-1.19563e+72
-1.19563e+72
-0.0255883
0.166249
0.50529
0.329471
0.0860437
-1.19563e+72
0.26387
-1.19563e+72
-1.19563e+72
0.222448
-1.19563e+72
0.535129
0.274077
-0.279817
-1.19563e+72
-1.19563e+72
0.112649
0.0405883
0.491557
-1.19563e+72
0.414352
-0.0772983
0.260945
-0.127979
0.524395
0.55455
-0.126752
0.550757
0.0503468
0.321814
0.28256
0.109565
0.0243288
0.4847
0.0950654
0.136763
-0.339919
0.171518
0.191951
-0.709675
-1.19563e+72
-1.19563e+72
0.0739986
-1.19563e+72
-1.19563e+72
-1.19563e+72
-1.19563e+72
0.0832291
-1.19563e+72
-1.19563e+72
-1.19563e+72
-1.19563e+72
-1.19563e+72
-0.0145111
-1.19563e+72
-1.19563e+72
-1.19563e+72
-1.19563e+72
-0.842344
-0.0823282
-1.19563e+72
-1.19563e+72
-1.19563e+72
-1.19563e+72
-1.19563e+72
-0.375053
-1.19563e+72
0.00896803
-1.19563e+72
-1.19563e+72
-1.19563e+72
-1.19563e+72
-1.19563e+72
-1.19563e+72
-0.313161
-1.19563e+72
-0.643445
-1.19563e+72
-1.19563e+72
-0.555935
-0.0503099
-1.19563e+72
-0.0966619
-1.19563e+72
-1.19563e+72
-1.19563e+72
-0.110594
-0.249807
-0.592511
-0.0109427
-1.19563e+72
-0.170208
-1.19563e+72
-0.40765
-1.19563e+72
-0.163835
-0.767296
-1.19563e+72
-1.19563e+72
-1.19563e+72
-0.574463
-1.19563e+72
-1.19563e+72
-1.19563e+72
-1.19563e+72
-1.19563e+72
-1.19563e+72
-1.19563e+72
-0.193132
-1.19563e+72
-1.19563e+72
-0.258629
-1.19563e+72
-0.505651
-1.19563e+72
-1.19563e+72
-0.362542
-1.19563e+72
-1.19563e+72
-0.60827
-1.01418
-1.19563e+72
-0.634146
-0.173883
-0.29026
-0.453859
-0.385107
-0.00939329
-0.0133072
-0.586899
0.229595
-0.464238
-0.0884614
0.0125121
0.0285878
-0.209285
-0.35621
-0.162807
-0.246345
-0.705389
-0.251377
3.00316e+71
3.00316e+71
-0.35543
-0.33392
-0.0748594
0.133545
-0.583424
0.0520495
-0.322633
-0.749265
-0.00230578
-0.71164
-0.120942
-0.162007
-0.409831
-0.102303
3.00316e+71
-0.147299
0.314524
-0.240817
-0.322036
3.00316e+71
3.00316e+71
-0.491643
-0.00170565
0.119003
-0.200998
-0.0686884
3.00316e+71
-0.0986729
3.00316e+71
3.00316e+71
-0.515802
3.00316e+71
-0.342473
-0.594472
-0.535334
3.00316e+71
3.00316e+71
-0.761941
-0.47489
-0.404315
3.00316e+71
-0.360811
-0.180953
0.0205055
-0.035056
-0.578199
-0.677722
0.0436855
-0.189679
0.0106443
-0.0235192
-0.542335
-0.50741
-0.312762
-0.698404
-0.195529
-0.462558
-0.0443806
-0.654596
-0.36885
-0.243561
3.00316e+71
3.00316e+71
0.561487
3.00316e+71
3.00316e+71
3.00316e+71
3.00316e+71
0.38747
3.00316e+71
3.00316e+71
3.00316e+71
3.00316e+71
3.00316e+71
0.0687582
3.00316e+71
3.00316e+71
3.00316e+71
3.00316e+71
0.45454
0.462593
3.00316e+71
3.00316e+71
3.00316e+71
3.00316e+71
3.00316e+71
-0.0181435
3.00316e+71
0.502332
3.00316e+71
3.00316e+71
3.00316e+71
3.00316e+71
3.00316e+71
3.00316e+71
0.350685
3.00316e+71
0.533066
3.00316e+71
3.00316e+71
0.0323571
0.650158
3.00316e+71
0.5618
3.00316e+71
3.00316e+71
3.00316e+71
0.577634
0.174842
0.342824
0.388465
3.00316e+71
0.595809
3.00316e+71
-0.268438
3.00316e+71
-0.13446
0.16483
3.00316e+71
3.00316e+71
3.00316e+71
0.512872
3.00316e+71
3.00316e+71
3.00316e+71
3.00316e+71
3.00316e+71
3.00316e+71
3.00316e+71
0.480088
3.00316e+71
3.00316e+71
-0.0212168
3.00316e+71
0.191985
3.00316e+71
3.00316e+71
0.291261
3.00316e+71
3.00316e+71
-0.0395645
-0.53178
3.00316e+71
-0.131246
0.0350232
0.0931888
0.153863
0.253912
0.216392
0.158598
-0.393576
0.0247536
0.269071
0.0422374
0.307998
0.226485
-0.457991
0.0932086
-0.376413
-0.153209
0.182792
0.0807975
-2.86255e+71
-2.86255e+71
0.150815
0.225677
-0.0547344
-0.292453
-0.212518
-0.351378
0.14074
-0.0695333
0.365535
-0.20968
-0.17999
-0.029184
-0.113074
0.133623
-2.86255e+71
-0.21783
-0.18514
-0.247618
-0.0982697
-2.86255e+71
-2.86255e+71
0.179907
-0.254413
0.136283
-0.238608
-0.33604
-2.86255e+71
0.139497
-2.86255e+71
-2.86255e+71
-0.511322
-2.86255e+71
0.22298
-0.338352
0.149411
-2.86255e+71
-2.86255e+71
-0.385967
-0.202138
-0.520367
-2.86255e+71
-0.529861
-0.334275
-0.433388
-0.415266
0.188188
-0.390408
-0.391209
0.131546
-0.380803
-0.271804
0.195481
-0.0186997
0.191529
0.210231
0.201358
0.260568
-0.391164
-0.0547591
0.129195
-0.279535
-2.86255e+71
-2.86255e+71
-0.135409
-2.86255e+71
-2.86255e+71
-2.86255e+71
-2.86255e+71
-0.235986
-2.86255e+71
-2.86255e+71
-2.86255e+71
-2.86255e+71
-2.86255e+71
-0.00985234
-2.86255e+71
-2.86255e+71
-2.86255e+71
-2.86255e+71
-0.476327
-0.448866
-2.86255e+71
-2.86255e+71
-2.86255e+71
-2.86255e+71
-2.86255e+71
0.231297
-2.86255e+71
0.150464
-2.86255e+71
-2.86255e+71
-2.86255e+71
-2.86255e+71
-2.86255e+71
-2.86255e+71
-0.426453
-2.86255e+71
-0.524606
-2.86255e+71
-2.86255e+71
-0.346406
-0.218972
-2.86255e+71
-0.241921
-2.86255e+71
-2.86255e+71
-2.86255e+71
-0.499441
0.284143
-0.405351
-0.3547
-2.86255e+71
-0.000978693
-2.86255e+71
-0.425991
-2.86255e+71
-0.392811
-0.617601
-2.86255e+71
-2.86255e+71
-2.86255e+71
0.0839919
-2.86255e+71
-2.86255e+71
-2.86255e+71
-2.86255e+71
-2.86255e+71
-2.86255e+71
-2.86255e+71
0.284804
-2.86255e+71
-2.86255e+71
0.052633
-2.86255e+71
-0.502179
-2.86255e+71
-2.86255e+71
0.00611877
-2.86255e+71
-2.86255e+71
0.337772
-1.93897
-2.86255e+71
-0.877895
-0.868063
-0.815471
-0.742626
-0.694682
-1.29497
-0.827247
-0.828152
-0.67764
-0.515588
-1.16299
-1.06695
-1.13825
-0.720919
-0.976106
-0.744288
-0.201259
-0.572274
-0.916113
1.23734e+64
1.23734e+64
-0.522041
-0.59394
-0.906915
-0.315849
-0.705334
-0.593151
-0.679988
-0.728533
-1.35471
-0.799237
-0.392313
-0.929679
-1.00692
-0.671179
1.23734e+64
-0.311036
-0.94579
-1.03236
-1.07505
1.23734e+64
1.23734e+64
-0.382912
-0.343945
-1.17083
-0.947507
-0.526329
1.23734e+64
-1.00916
1.23734e+64
1.23734e+64
-1.04932
1.23734e+64
-1.06735
-0.713225
-0.545839
1.23734e+64
1.23734e+64
-0.675523
-0.47727
-1.27701
1.23734e+64
-0.672506
-0.541029
-0.76215
-0.569641
-0.829859
-1.18713
-0.813827
-1.1037
-0.673139
-0.868997
-0.727971
-0.848351
-0.94472
-0.484949
-0.958991
-0.467165
-0.589896
-0.944477
-1.10602
0.575929
1.23734e+64
1.23734e+64
0.868257
1.23734e+64
1.23734e+64
1.23734e+64
1.23734e+64
0.924135
1.23734e+64
1.23734e+64
1.23734e+64
1.23734e+64
1.23734e+64
0.981848
1.23734e+64
1.23734e+64
1.23734e+64
1.23734e+64
1.05947
0.402933
1.23734e+64
1.23734e+64
1.23734e+64
1.23734e+64
1.23734e+64
1.16173
1.23734e+64
0.686083
1.23734e+64
1.23734e+64
1.23734e+64
1.23734e+64
1.23734e+64
1.23734e+64
0.512634
1.23734e+64
0.589696
1.23734e+64
1.23734e+64
0.904845
0.587416
1.23734e+64
1.01959
1.23734e+64
1.23734e+64
1.23734e+64
0.799276
0.950155
0.792117
1.40482
1.23734e+64
0.700471
1.23734e+64
1.24698
1.23734e+64
0.950027
0.64297
1.23734e+64
1.23734e+64
1.23734e+64
1.11188
1.23734e+64
1.23734e+64
1.23734e+64
1.23734e+64
1.23734e+64
1.23734e+64
1.23734e+64
0.508433
1.23734e+64
1.23734e+64
0.829864
1.23734e+64
0.720187
1.23734e+64
1.23734e+64
0.642327
1.23734e+64
1.23734e+64
0.433775
-2.06151
1.23734e+64
-0.155055
-0.0922203
-0.328351
-0.0827852
-0.242343
-0.144915
0.0172451
-0.468088
-0.282957
-0.110228
-0.0894045
-0.335005
-0.266411
-0.495052
0.130781
-0.650934
-0.0851512
-0.262993
-0.357516
-6.61302e+69
-6.61302e+69
0.110647
-0.231731
0.0591963
-0.218377
-0.13209
0.12319
-0.22124
-0.0724116
0.0571207
-0.0311755
0.0791544
-0.338045
-0.0603888
-0.011861
-6.61302e+69
-0.343414
-0.098914
-0.0313466
-0.282675
-6.61302e+69
-6.61302e+69
0.140599
-0.0728989
-0.112627
-0.200776
-0.184108
-6.61302e+69
0.147841
-6.61302e+69
-6.61302e+69
-0.160055
-6.61302e+69
-0.0947075
0.0295369
-0.300273
-6.61302e+69
-6.61302e+69
-0.137621
-0.0665311
-0.306972
-6.61302e+69
-0.180661
-0.0364475
0.0211841
-0.201803
0.15636
0.102443
-0.148153
-0.116123
-0.109598
-0.30603
-0.137349
-0.0664583
0.126854
0.149646
-0.105464
0.0365525
-0.276136
-0.172097
0.0695799
0.122977
-6.61302e+69
-6.61302e+69
0.220087
-6.61302e+69
-6.61302e+69
-6.61302e+69
-6.61302e+69
-0.431906
-6.61302e+69
-6.61302e+69
-6.61302e+69
-6.61302e+69
-6.61302e+69
-0.0298985
-6.61302e+69
-6.61302e+69
-6.61302e+69
-6.61302e+69
-0.243196
0.112438
-6.61302e+69
-6.61302e+69
-6.61302e+69
-6.61302e+69
-6.61302e+69
-0.358929
-6.61302e+69
-0.389541
-6.61302e+69
-6.61302e+69
-6.61302e+69
-6.61302e+69
-6.61302e+69
-6.61302e+69
-0.0542306
-6.61302e+69
0.0863088
-6.61302e+69
-6.61302e+69
-0.207861
-0.0140254
-6.61302e+69
-0.71576
-6.61302e+69
-6.61302e+69
-6.61302e+69
-0.479933
0.257964
-0.331031
-0.110032
-6.61302e+69
0.141774
-6.61302e+69
-0.0660627
-6.61302e+69
-0.488198
-0.615246
-6.61302e+69
-6.61302e+69
-6.61302e+69
-0.0159832
-6.61302e+69
-6.61302e+69
-6.61302e+69
-6.61302e+69
-6.61302e+69
-6.61302e+69
-6.61302e+69
-0.640548
-6.61302e+69
-6.61302e+69
-0.264285
-6.61302e+69
-0.806119
-6.61302e+69
-6.61302e+69
-0.49235
-6.61302e+69
-6.61302e+69
-0.666878
-3.0992
-6.61302e+69
0.0233011
-0.00626932
-0.340535
0.385606
0.043251
-0.0791629
-0.33041
-0.286127
-0.121681
0.282896
0.216668
-0.296142
-0.170244
-0.113828
-0.220421
0.00154274
-0.329887
-0.0773897
0.294695
7.05982e+70
7.05982e+70
0.0117491
0.0368056
-0.425658
-0.663494
-0.258135
-0.353435
0.15299
-0.235761
0.567389
-0.239958
-0.304619
-0.363592
-0.78188
-0.6802
7.05982e+70
0.205988
0.187618
-0.0466597
-0.161718
7.05982e+70
7.05982e+70
-0.400206
-0.348419
-0.0702545
-0.0121019
-0.251422
7.05982e+70
0.151512
7.05982e+70
7.05982e+70
-0.624888
7.05982e+70
-0.243706
-0.0659926
0.196276
7.05982e+70
7.05982e+70
-0.0467026
-0.12668
0.222316
7.05982e+70
-0.155117
0.00410027
0.0185606
0.0603832
0.00146988
-0.204995
-0.227018
-0.493622
-0.00322109
0.0592623
-0.12463
0.0274694
0.557277
0.222037
0.00847639
0.110655
-0.411013
-0.236142
-0.0816541
-0.232978
7.05982e+70
7.05982e+70
0.353053
7.05982e+70
7.05982e+70
7.05982e+70
7.05982e+70
-0.124752
7.05982e+70
7.05982e+70
7.05982e+70
7.05982e+70
7.05982e+70
0.0753695
7.05982e+70
7.05982e+70
7.05982e+70
7.05982e+70
-0.362068
-0.0977452
7.05982e+70
7.05982e+70
7.05982e+70
7.05982e+70
7.05982e+70
0.212325
7.05982e+70
-0.410306
7.05982e+70
7.05982e+70
7.05982e+70
7.05982e+70
7.05982e+70
7.05982e+70
0.672136
7.05982e+70
0.306445
7.05982e+70
7.05982e+70
-0.0599417
-0.0301845
7.05982e+70
0.586582
7.05982e+70
7.05982e+70
7.05982e+70
-0.0426906
-0.249866
-0.231144
-0.0716333
7.05982e+70
0.606625
7.05982e+70
-0.265845
7.05982e+70
-0.63542
-0.282593
7.05982e+70
7.05982e+70
7.05982e+70
0.0698958
7.05982e+70
7.05982e+70
7.05982e+70
7.05982e+70
7.05982e+70
7.05982e+70
7.05982e+70
-0.0412964
7.05982e+70
7.05982e+70
-0.230821
7.05982e+70
0.221386
7.05982e+70
7.05982e+70
-0.380602
7.05982e+70
7.05982e+70
0.0640831
2.57985
7.05982e+70
-0.0278021
-0.339826
-0.224877
0.136917
-0.0936233
0.158866
-0.0348557
-0.193047
-0.545184
-0.384248
0.012406
0.0372103
-0.312004
-0.14961
-0.0955545
-0.371487
-0.044282
-0.218624
0.00229309
-5.11623e+70
-5.11623e+70
0.0211407
-0.0609563
-0.0170245
-0.147303
-0.0680413
-0.160454
-0.108332
-0.156518
0.322069
-0.222922
0.00986298
-0.283564
-0.349145
-0.338247
-5.11623e+70
-0.0581001
-0.076008
0.123103
-0.170712
-5.11623e+70
-5.11623e+70
-0.162383
-0.410857
-0.0734118
0.299394
-0.183147
-5.11623e+70
-0.100758
-5.11623e+70
-5.11623e+70
-0.290657
-5.11623e+70
-0.285339
0.0362716
-0.175862
-5.11623e+70
-5.11623e+70
-0.210089
-0.479523
-0.376822
-5.11623e+70
-0.0390053
-0.465584
0.00432809
-0.0425661
-0.220215
-0.269245
-0.0977543
-0.173787
-0.397114
-0.227069
-0.036539
-0.21166
-0.490062
-0.263683
-0.0958403
-0.300921
-0.251599
-0.146445
-0.456393
-0.571351
-5.11623e+70
-5.11623e+70
-0.133617
-5.11623e+70
-5.11623e+70
-5.11623e+70
-5.11623e+70
0.0035675
-5.11623e+70
-5.11623e+70
-5.11623e+70
-5.11623e+70
-5.11623e+70
0.00587181
-5.11623e+70
-5.11623e+70
-5.11623e+70
-5.11623e+70
0.0964404
-0.0968969
-5.11623e+70
-5.11623e+70
-5.11623e+70
-5.11623e+70
-5.11623e+70
-0.164367
-5.11623e+70
-0.718901
-5.11623e+70
-5.11623e+70
-5.11623e+70
-5.11623e+70
-5.11623e+70
-5.11623e+70
-0.0780866
-5.11623e+70
-0.506288
-5.11623e+70
-5.11623e+70
-0.0214856
0.0888847
-5.11623e+70
-0.340064
-5.11623e+70
-5.11623e+70
-5.11623e+70
-0.0781799
-0.356329
0.0420228
-0.417752
-5.11623e+70
-0.241661
-5.11623e+70
0.201966
-5.11623e+70
0.190253
-0.294671
-5.11623e+70
-5.11623e+70
-5.11623e+70
0.291234
-5.11623e+70
-5.11623e+70
-5.11623e+70
-5.11623e+70
-5.11623e+70
-5.11623e+70
-5.11623e+70
-0.55884
-5.11623e+70
-5.11623e+70
-0.476379
-5.11623e+70
-0.308113
-5.11623e+70
-5.11623e+70
0.295836
-5.11623e+70
-5.11623e+70
0.0581672
-3.00732
-5.11623e+70
-0.406714
-0.465356
-0.243246
0.162761
-0.445566
0.232135
-0.256728
-0.159144
0.277336
0.211737
-0.548593
-0.420202
-0.0422356
0.111069
-0.409027
-0.566681
-0.545658
-0.111709
0.129772
-2.94777e+70
-2.94777e+70
-0.0688392
-0.383353
0.126171
-0.250017
0.293565
0.261879
-0.0468466
-0.137586
-0.0310444
-0.0496144
-0.317321
0.264655
-0.272512
0.0203727
-2.94777e+70
-0.236746
-0.423913
-0.420556
0.115241
-2.94777e+70
-2.94777e+70
-0.0606031
-0.196753
-0.327866
-0.58609
0.0999177
-2.94777e+70
0.142683
-2.94777e+70
-2.94777e+70
-0.327077
-2.94777e+70
0.0765773
0.258545
-0.255581
-2.94777e+70
-2.94777e+70
0.231798
-0.568699
0.13138
-2.94777e+70
-0.124472
0.147467
-0.155232
-0.421969
-0.159881
-0.448605
-0.364178
-0.0598387
-0.0618383
-0.238315
-0.0171519
-0.235232
-0.496168
-0.0534544
0.248343
0.212034
0.00757216
-0.320551
-0.165176
-0.102521
-2.94777e+70
-2.94777e+70
0.148018
-2.94777e+70
-2.94777e+70
-2.94777e+70
-2.94777e+70
-0.293903
-2.94777e+70
-2.94777e+70
-2.94777e+70
-2.94777e+70
-2.94777e+70
-0.545791
-2.94777e+70
-2.94777e+70
-2.94777e+70
-2.94777e+70
-0.476425
0.394318
-2.94777e+70
-2.94777e+70
-2.94777e+70
-2.94777e+70
-2.94777e+70
0.157836
-2.94777e+70
0.31593
-2.94777e+70
-2.94777e+70
-2.94777e+70
-2.94777e+70
-2.94777e+70
-2.94777e+70
0.216905
-2.94777e+70
-0.501297
-2.94777e+70
-2.94777e+70
-0.0555726
0.0646769
-2.94777e+70
0.24643
-2.94777e+70
-2.94777e+70
-2.94777e+70
0.261758
-0.374279
-0.119149
0.256217
-2.94777e+70
0.0927863
-2.94777e+70
-0.237061
-2.94777e+70
-0.364201
0.172493
-2.94777e+70
-2.94777e+70
-2.94777e+70
-0.50267
-2.94777e+70
-2.94777e+70
-2.94777e+70
-2.94777e+70
-2.94777e+70
-2.94777e+70
-2.94777e+70
-0.261795
-2.94777e+70
-2.94777e+70
-0.291388
-2.94777e+70
-0.271184
-2.94777e+70
-2.94777e+70
0.05152
-2.94777e+70
-2.94777e+70
-0.508225
-0.101788
-2.94777e+70
-0.278318
-0.249329
0.229292
0.313106
-0.212968
-0.0283772
0.100269
-0.254261
-0.366257
0.348747
-0.176447
-0.467227
-0.43097
0.387367
-0.351314
0.199919
-0.215658
0.405288
-0.515817
-1.22303e+71
-1.22303e+71
0.26461
-0.340885
-0.500832
-0.0887068
0.0497579
0.208103
-0.207145
-0.348179
-0.210472
0.357043
0.265325
0.242752
0.240301
-0.232912
-1.22303e+71
0.15137
-0.550295
0.249778
-0.123828
-1.22303e+71
-1.22303e+71
-0.0508982
-0.385939
0.211842
0.135436
-0.262716
-1.22303e+71
0.17036
-1.22303e+71
-1.22303e+71
-0.265852
-1.22303e+71
-0.218521
0.364368
-0.287139
-1.22303e+71
-1.22303e+71
-0.542454
-0.244684
0.39335
-1.22303e+71
-0.0896637
-0.546217
0.222918
-0.0955858
0.304578
0.0619034
0.280605
-0.190148
0.399503
0.216318
0.199276
0.346325
-0.382506
-0.509426
-0.00314427
0.343022
0.160756
-0.444018
-0.439803
-0.136914
-1.22303e+71
-1.22303e+71
0.293909
-1.22303e+71
-1.22303e+71
-1.22303e+71
-1.22303e+71
-0.627796
-1.22303e+71
-1.22303e+71
-1.22303e+71
-1.22303e+71
-1.22303e+71
0.144166
-1.22303e+71
-1.22303e+71
-1.22303e+71
-1.22303e+71
0.140814
-0.357229
-1.22303e+71
-1.22303e+71
-1.22303e+71
-1.22303e+71
-1.22303e+71
-0.0206916
-1.22303e+71
-0.194102
-1.22303e+71
-1.22303e+71
-1.22303e+71
-1.22303e+71
-1.22303e+71
-1.22303e+71
0.118906
-1.22303e+71
0.211891
-1.22303e+71
-1.22303e+71
-0.198164
0.106083
-1.22303e+71
-0.00243296
-1.22303e+71
-1.22303e+71
-1.22303e+71
0.178544
0.429563
-0.104115
0.349963
-1.22303e+71
-0.550902
-1.22303e+71
-0.109193
-1.22303e+71
0.214225
0.0995708
-1.22303e+71
-1.22303e+71
-1.22303e+71
0.0357327
-1.22303e+71
-1.22303e+71
-1.22303e+71
-1.22303e+71
-1.22303e+71
-1.22303e+71
-1.22303e+71
-0.458029
-1.22303e+71
-1.22303e+71
-0.33249
-1.22303e+71
-0.479539
-1.22303e+71
-1.22303e+71
-0.337279
-1.22303e+71
-1.22303e+71
0.123842
-0.382192
-1.22303e+71
-0.368961
-0.348547
-0.354077
0.010285
0.279654
-0.277063
-0.274342
-0.58892
0.286414
0.402447
-0.0639467
0.320679
0.216878
-0.0255552
-0.182902
-0.3385
0.210603
-0.164257
-0.567519
-5.09457e+72
-5.09457e+72
0.293589
0.314199
0.3468
-0.351105
0.318752
-0.0745031
0.325849
0.238852
-0.00390231
0.193721
0.159178
0.0509148
-0.415687
0.268136
-5.09457e+72
-0.00665683
0.38205
-0.325504
-0.378832
-5.09457e+72
-5.09457e+72
-0.169904
-0.528965
-0.540805
0.389418
-0.0364063
-5.09457e+72
-0.215364
-5.09457e+72
-5.09457e+72
-0.0799466
-5.09457e+72
-0.418239
-0.280613
0.3998
-5.09457e+72
-5.09457e+72
-0.41116
-0.0962682
-0.252547
-5.09457e+72
-0.640672
-0.114097
0.181763
0.179888
-0.181597
0.250574
-0.062738
0.264055
-0.193393
0.049044
0.245332
0.178233
-0.0281034
-0.240363
-0.497837
0.391856
0.224769
0.0299928
-0.635685
0.311661
-5.09457e+72
-5.09457e+72
-0.514952
-5.09457e+72
-5.09457e+72
-5.09457e+72
-5.09457e+72
-0.454215
-5.09457e+72
-5.09457e+72
-5.09457e+72
-5.09457e+72
-5.09457e+72
0.110297
-5.09457e+72
-5.09457e+72
-5.09457e+72
-5.09457e+72
-0.0438191
-0.101973
-5.09457e+72
-5.09457e+72
-5.09457e+72
-5.09457e+72
-5.09457e+72
-0.0507895
-5.09457e+72
0.108874
-5.09457e+72
-5.09457e+72
-5.09457e+72
-5.09457e+72
-5.09457e+72
-5.09457e+72
-0.208365
-5.09457e+72
-0.228144
-5.09457e+72
-5.09457e+72
0.335143
-0.385527
-5.09457e+72
0.492711
-5.09457e+72
-5.09457e+72
-5.09457e+72
-0.00552208
-0.321919
0.199281
0.00845013
-5.09457e+72
0.206453
-5.09457e+72
0.151397
-5.09457e+72
0.303111
-0.348328
-5.09457e+72
-5.09457e+72
-5.09457e+72
0.224063
-5.09457e+72
-5.09457e+72
-5.09457e+72
-5.09457e+72
-5.09457e+72
-5.09457e+72
-5.09457e+72
0.145435
-5.09457e+72
-5.09457e+72
0.0150766
-5.09457e+72
-0.177367
-5.09457e+72
-5.09457e+72
0.355591
-5.09457e+72
-5.09457e+72
0.649358
0.539255
-5.09457e+72
0.206112
0.331525
0.277878
0.437545
0.308158
0.0894169
0.156186
-0.0530578
0.0284141
0.399203
0.542123
0.151959
0.558273
0.637757
0.526887
0.182863
0.19178
0.405989
0.401852
-3.9383e+67
-3.9383e+67
0.120432
0.293944
0.962377
0.276222
-0.0113164
0.401119
0.436131
0.442173
0.486853
0.252984
0.147284
0.15067
0.336731
0.301684
-3.9383e+67
0.348484
0.352159
0.761097
0.00637698
-3.9383e+67
-3.9383e+67
0.76625
0.0778663
0.201281
0.244422
0.642305
-3.9383e+67
0.658223
-3.9383e+67
-3.9383e+67
0.160172
-3.9383e+67
0.230517
0.456364
0.175991
-3.9383e+67
-3.9383e+67
0.0849442
0.428996
0.193493
-3.9383e+67
0.514578
0.298211
0.522524
0.457143
0.53435
0.466497
0.58162
0.229401
0.421187
0.27701
0.270721
0.36324
0.117862
0.306172
0.357192
0.380049
0.866516
0.378724
0.3572
0.327559
-3.9383e+67
-3.9383e+67
-0.107931
-3.9383e+67
-3.9383e+67
-3.9383e+67
-3.9383e+67
-0.491339
-3.9383e+67
-3.9383e+67
-3.9383e+67
-3.9383e+67
-3.9383e+67
-0.462309
-3.9383e+67
-3.9383e+67
-3.9383e+67
-3.9383e+67
-0.287992
-0.270104
-3.9383e+67
-3.9383e+67
-3.9383e+67
-3.9383e+67
-3.9383e+67
-0.595348
-3.9383e+67
-0.230845
-3.9383e+67
-3.9383e+67
-3.9383e+67
-3.9383e+67
-3.9383e+67
-3.9383e+67
-0.36529
-3.9383e+67
-0.327468
-3.9383e+67
-3.9383e+67
-0.151686
-0.603329
-3.9383e+67
-0.647529
-3.9383e+67
-3.9383e+67
-3.9383e+67
-0.0362048
-0.250869
-0.413346
-0.283764
-3.9383e+67
-0.589661
-3.9383e+67
-0.559846
-3.9383e+67
-0.311912
-0.622481
-3.9383e+67
-3.9383e+67
-3.9383e+67
-0.922456
-3.9383e+67
-3.9383e+67
-3.9383e+67
-3.9383e+67
-3.9383e+67
-3.9383e+67
-3.9383e+67
-0.518697
-3.9383e+67
-3.9383e+67
-0.222712
-3.9383e+67
-0.314883
-3.9383e+67
-3.9383e+67
-0.727393
-3.9383e+67
-3.9383e+67
-0.508256
-3.78013
-3.9383e+67
-0.0405795
-0.0767543
-0.0259876
-0.138601
-0.0552274
-0.0799102
-0.32118
0.0250876
-0.188683
-0.0984872
0.203522
-0.0405792
-0.00723862
-0.625826
-0.0536983
-0.0400024
-0.340079
-0.389448
-0.142742
7.77072e+70
7.77072e+70
-0.0686339
0.000949973
-1.02469
-0.444071
-0.00568449
-0.375222
-0.227242
-0.0263544
-0.0983152
-0.034457
-0.465165
-0.497549
-0.448666
-0.179003
7.77072e+70
0.131539
0.227976
-0.0626531
-0.129943
7.77072e+70
7.77072e+70
-0.49574
-0.157468
0.237545
-0.353963
-0.0644276
7.77072e+70
-0.400738
7.77072e+70
7.77072e+70
-0.625192
7.77072e+70
-0.314983
0.0131969
-0.0354761
7.77072e+70
7.77072e+70
-0.1233
-0.478921
-0.174917
7.77072e+70
-0.141461
-0.34671
-0.142759
-0.152702
-0.344029
-0.315189
-0.316238
-0.0582251
0.00751205
-0.227033
-0.174435
-0.0750684
-0.310879
-0.181005
-0.162952
-0.480663
-0.647137
-0.321827
-0.13003
-0.0496734
7.77072e+70
7.77072e+70
-0.137698
7.77072e+70
7.77072e+70
7.77072e+70
7.77072e+70
-0.28943
7.77072e+70
7.77072e+70
7.77072e+70
7.77072e+70
7.77072e+70
0.415723
7.77072e+70
7.77072e+70
7.77072e+70
7.77072e+70
-0.276776
-0.216023
7.77072e+70
7.77072e+70
7.77072e+70
7.77072e+70
7.77072e+70
0.0424347
7.77072e+70
0.301048
7.77072e+70
7.77072e+70
7.77072e+70
7.77072e+70
7.77072e+70
7.77072e+70
0.187359
7.77072e+70
-0.37791
7.77072e+70
7.77072e+70
-0.00702634
-0.18232
7.77072e+70
-0.202376
7.77072e+70
7.77072e+70
7.77072e+70
-0.350092
0.0786525
0.00951401
0.161112
7.77072e+70
-0.332077
7.77072e+70
-0.444402
7.77072e+70
-0.438268
0.109987
7.77072e+70
7.77072e+70
7.77072e+70
-0.501483
7.77072e+70
7.77072e+70
7.77072e+70
7.77072e+70
7.77072e+70
7.77072e+70
7.77072e+70
-0.0289863
7.77072e+70
7.77072e+70
0.00617803
7.77072e+70
-0.243207
7.77072e+70
7.77072e+70
0.026745
7.77072e+70
7.77072e+70
0.0662705
4.23579
7.77072e+70
-0.19859
0.163805
0.0660396
-0.102391
-0.355264
-0.414049
-0.373211
-0.114761
-0.419126
-0.375254
-0.203951
-0.488588
-0.409617
-0.0567365
-0.336828
-0.0192287
-0.0701636
-0.17549
-0.44046
-2.36638e+71
-2.36638e+71
-0.314258
-0.336438
-0.596917
-0.0513643
-0.42702
-0.300662
0.00397334
0.0698736
-0.47942
0.0938475
-0.145775
-0.159132
-0.354629
-0.200589
-2.36638e+71
0.0986153
0.0174038
-0.486729
-0.050481
-2.36638e+71
-2.36638e+71
-0.67344
-0.163254
-0.141369
-0.406688
-0.454072
-2.36638e+71
0.090803
-2.36638e+71
-2.36638e+71
-0.229622
-2.36638e+71
-0.534526
-0.341673
-0.358437
-2.36638e+71
-2.36638e+71
-0.146136
-0.483643
-0.51042
-2.36638e+71
0.0927101
-0.525429
-0.149811
-0.293708
-0.428232
-0.0310711
0.136916
0.140562
0.102563
-0.143635
-0.0913044
0.0357392
-0.604575
-0.195642
-0.372606
0.373519
-0.22507
-0.106394
-0.493396
-0.30005
-2.36638e+71
-2.36638e+71
0.0635262
-2.36638e+71
-2.36638e+71
-2.36638e+71
-2.36638e+71
0.132894
-2.36638e+71
-2.36638e+71
-2.36638e+71
-2.36638e+71
-2.36638e+71
0.125416
-2.36638e+71
-2.36638e+71
-2.36638e+71
-2.36638e+71
-0.0580551
-0.390523
-2.36638e+71
-2.36638e+71
-2.36638e+71
-2.36638e+71
-2.36638e+71
0.100869
-2.36638e+71
-0.554441
-2.36638e+71
-2.36638e+71
-2.36638e+71
-2.36638e+71
-2.36638e+71
-2.36638e+71
-0.502158
-2.36638e+71
0.13168
-2.36638e+71
-2.36638e+71
0.125821
-0.177607
-2.36638e+71
-0.473081
-2.36638e+71
-2.36638e+71
-2.36638e+71
-0.560237
-0.404575
-0.198044
0.0414488
-2.36638e+71
-0.644362
-2.36638e+71
-0.0284281
-2.36638e+71
0.248953
-0.442586
-2.36638e+71
-2.36638e+71
-2.36638e+71
-0.1049
-2.36638e+71
-2.36638e+71
-2.36638e+71
-2.36638e+71
-2.36638e+71
-2.36638e+71
-2.36638e+71
0.0757106
-2.36638e+71
-2.36638e+71
-0.0786929
-2.36638e+71
0.0604914
-2.36638e+71
-2.36638e+71
0.0684761
-2.36638e+71
-2.36638e+71
-0.216061
0.04807
-2.36638e+71
0.322152
-0.423665
0.250116
-0.472288
-0.060443
0.276996
-0.160357
-0.51067
-0.569187
-0.541999
0.0880987
-0.449873
-0.414341
0.0894126
0.138117
0.0550836
-0.451403
-0.44288
-0.633016
1.01485e+73
1.01485e+73
-0.45768
0.255561
-0.054209
0.0868329
-0.139287
-0.220921
-0.0810413
-0.566895
0.293631
-0.54652
-0.142388
-0.00917525
-0.023336
-0.0449747
1.01485e+73
-0.50288
0.42428
-0.310336
0.0482684
1.01485e+73
1.01485e+73
-0.403444
-0.640988
0.0326178
-0.489245
0.172308
1.01485e+73
-0.256885
1.01485e+73
1.01485e+73
-0.257681
1.01485e+73
-0.463624
0.224962
0.208634
1.01485e+73
1.01485e+73
-0.00619887
0.171565
0.308167
1.01485e+73
-0.240307
-0.537308
-0.414466
0.260217
0.0455933
0.150818
-0.281999
-0.15094
-0.50056
-0.151508
0.0499523
0.146426
-0.302841
-0.497809
-0.274092
0.320584
0.106922
-0.212575
-0.556519
0.550742
1.01485e+73
1.01485e+73
0.032505
1.01485e+73
1.01485e+73
1.01485e+73
1.01485e+73
-0.0411392
1.01485e+73
1.01485e+73
1.01485e+73
1.01485e+73
1.01485e+73
0.674897
1.01485e+73
1.01485e+73
1.01485e+73
1.01485e+73
-0.26452
0.399224
1.01485e+73
1.01485e+73
1.01485e+73
1.01485e+73
1.01485e+73
0.055679
1.01485e+73
-0.220749
1.01485e+73
1.01485e+73
1.01485e+73
1.01485e+73
1.01485e+73
1.01485e+73
0.539345
1.01485e+73
0.0711071
1.01485e+73
1.01485e+73
0.146904
-0.0930769
1.01485e+73
0.439257
1.01485e+73
1.01485e+73
1.01485e+73
-0.0319228
0.489907
-0.199453
-0.233618
1.01485e+73
0.478377
1.01485e+73
-0.108506
1.01485e+73
0.409988
0.373951
1.01485e+73
1.01485e+73
1.01485e+73
-0.25706
1.01485e+73
1.01485e+73
1.01485e+73
1.01485e+73
1.01485e+73
1.01485e+73
1.01485e+73
0.11509
1.01485e+73
1.01485e+73
-0.215506
1.01485e+73
0.511944
1.01485e+73
1.01485e+73
-0.181398
1.01485e+73
1.01485e+73
0.485458
0.436828
1.01485e+73
0.124122
0.386886
0.158772
0.306751
0.611204
0.161176
0.337434
0.522104
0.347752
0.190025
0.550565
0.79358
0.326483
0.967145
0.501424
1.06225
0.419949
0.311535
0.8224
-4.42122e+71
-4.42122e+71
0.553119
0.369093
1.04915
0.835924
0.369078
0.188162
0.480805
0.806599
0.427037
0.652407
0.768732
0.482712
0.863027
0.659561
-4.42122e+71
0.357703
1.03127
0.253199
0.433846
-4.42122e+71
-4.42122e+71
0.910601
0.270663
-0.0545774
0.321429
0.822036
-4.42122e+71
0.842439
-4.42122e+71
-4.42122e+71
0.592382
-4.42122e+71
0.685276
0.737069
0.5976
-4.42122e+71
-4.42122e+71
0.498534
0.544356
0.204637
-4.42122e+71
0.346172
0.657573
0.540039
0.350525
1.00353
0.229395
0.396697
0.246684
0.691471
0.129479
0.371325
0.64523
0.436183
0.454354
0.763631
0.460314
0.721611
0.747842
0.538852
-0.27544
-4.42122e+71
-4.42122e+71
-0.238601
-4.42122e+71
-4.42122e+71
-4.42122e+71
-4.42122e+71
-0.322961
-4.42122e+71
-4.42122e+71
-4.42122e+71
-4.42122e+71
-4.42122e+71
-0.618584
-4.42122e+71
-4.42122e+71
-4.42122e+71
-4.42122e+71
-0.0386813
-0.609177
-4.42122e+71
-4.42122e+71
-4.42122e+71
-4.42122e+71
-4.42122e+71
-0.288864
-4.42122e+71
-0.624947
-4.42122e+71
-4.42122e+71
-4.42122e+71
-4.42122e+71
-4.42122e+71
-4.42122e+71
-0.523335
-4.42122e+71
-0.399387
-4.42122e+71
-4.42122e+71
-0.678617
0.485077
-4.42122e+71
-0.734988
-4.42122e+71
-4.42122e+71
-4.42122e+71
-0.052609
-0.29107
-0.328724
-0.467778
-4.42122e+71
-0.205751
-4.42122e+71
-0.295998
-4.42122e+71
-0.310378
-0.529203
-4.42122e+71
-4.42122e+71
-4.42122e+71
-0.657345
-4.42122e+71
-4.42122e+71
-4.42122e+71
-4.42122e+71
-4.42122e+71
-4.42122e+71
-4.42122e+71
-0.0162772
-4.42122e+71
-4.42122e+71
-0.135203
-4.42122e+71
-0.241188
-4.42122e+71
-4.42122e+71
-0.416992
-4.42122e+71
-4.42122e+71
-0.427008
-5.20962
-4.42122e+71
-0.507974
0.269489
-0.145761
0.106337
-0.18382
-0.162005
-0.442803
-0.306021
0.111656
-0.381923
-0.333014
-0.161167
0.235253
-0.0731322
0.180019
0.303104
0.187769
-0.49525
-0.526286
-7.60812e+71
-7.60812e+71
0.213261
-0.347478
0.276439
-0.360716
-0.357391
0.0790351
-0.355327
-0.528381
0.208615
0.0577221
-0.135595
-0.260302
-0.392689
-0.530985
-7.60812e+71
0.193136
-0.564003
-0.522419
-0.0683683
-7.60812e+71
-7.60812e+71
-0.279147
0.1136
-0.374916
0.247893
-0.229376
-7.60812e+71
-0.2762
-7.60812e+71
-7.60812e+71
-0.161622
-7.60812e+71
-0.06166
-0.370693
-0.311752
-7.60812e+71
-7.60812e+71
-0.0780472
-0.349898
0.041136
-7.60812e+71
-0.475111
0.164406
0.120978
-0.145819
0.105356
-0.208856
0.0675321
-0.526177
-0.460987
0.00646599
-0.442108
0.0968315
-0.307477
-0.0644301
-0.244938
0.0275025
0.257748
-0.0691084
0.0465945
-0.265511
-7.60812e+71
-7.60812e+71
-0.0134353
-7.60812e+71
-7.60812e+71
-7.60812e+71
-7.60812e+71
-0.566319
-7.60812e+71
-7.60812e+71
-7.60812e+71
-7.60812e+71
-7.60812e+71
-0.458445
-7.60812e+71
-7.60812e+71
-7.60812e+71
-7.60812e+71
0.143484
-0.0584149
-7.60812e+71
-7.60812e+71
-7.60812e+71
-7.60812e+71
-7.60812e+71
-0.221228
-7.60812e+71
0.193355
-7.60812e+71
-7.60812e+71
-7.60812e+71
-7.60812e+71
-7.60812e+71
-7.60812e+71
0.125629
-7.60812e+71
-0.249866
-7.60812e+71
-7.60812e+71
0.2574
-0.563801
-7.60812e+71
-0.43962
-7.60812e+71
-7.60812e+71
-7.60812e+71
-0.11255
-0.372291
-0.345392
-0.496061
-7.60812e+71
-0.518237
-7.60812e+71
0.207261
-7.60812e+71
0.194796
-0.0686419
-7.60812e+71
-7.60812e+71
-7.60812e+71
-0.385713
-7.60812e+71
-7.60812e+71
-7.60812e+71
-7.60812e+71
-7.60812e+71
-7.60812e+71
-7.60812e+71
0.264751
-7.60812e+71
-7.60812e+71
-0.0259363
-7.60812e+71
0.27125
-7.60812e+71
-7.60812e+71
-0.57042
-7.60812e+71
-7.60812e+71
0.349796
0.0512028
-7.60812e+71
0.23328
0.237637
-0.216729
0.107267
-0.238374
-0.0925028
0.165194
-0.243457
0.187458
0.0150971
-0.0765808
0.0922739
-0.0831892
-0.0675504
0.456904
-0.19732
0.545253
0.0631079
0.251446
9.09137e+70
9.09137e+70
0.32379
0.274167
0.120859
0.0201371
0.419083
-0.347818
0.302682
0.234896
-0.174755
0.387204
0.432165
-0.00929216
-0.170424
0.096734
9.09137e+70
-0.166071
0.49418
-0.249422
0.391982
9.09137e+70
9.09137e+70
0.513669
-0.129486
0.0819516
-0.141018
-0.241599
9.09137e+70
0.498687
9.09137e+70
9.09137e+70
0.0604551
9.09137e+70
0.472214
0.41736
0.104954
9.09137e+70
9.09137e+70
0.0545293
0.437913
0.430764
9.09137e+70
0.506388
-0.142416
0.240538
0.359977
0.295176
0.478781
0.288516
-0.0578682
0.00940369
0.275023
0.0867547
0.374837
-0.166071
-0.124249
0.576506
0.257446
0.297111
-0.255042
0.0543557
-0.349898
9.09137e+70
9.09137e+70
-0.0819254
9.09137e+70
9.09137e+70
9.09137e+70
9.09137e+70
-0.0603995
9.09137e+70
9.09137e+70
9.09137e+70
9.09137e+70
9.09137e+70
0.229284
9.09137e+70
9.09137e+70
9.09137e+70
9.09137e+70
0.318798
0.388143
9.09137e+70
9.09137e+70
9.09137e+70
9.09137e+70
9.09137e+70
-0.306978
9.09137e+70
0.267154
9.09137e+70
9.09137e+70
9.09137e+70
9.09137e+70
9.09137e+70
9.09137e+70
0.316599
9.09137e+70
0.148357
9.09137e+70
9.09137e+70
-0.15661
0.320512
9.09137e+70
0.456249
9.09137e+70
9.09137e+70
9.09137e+70
0.427677
-0.0444293
-0.212148
0.353671
9.09137e+70
0.0580736
9.09137e+70
0.587353
9.09137e+70
0.436519
0.022131
9.09137e+70
9.09137e+70
9.09137e+70
-0.216572
9.09137e+70
9.09137e+70
9.09137e+70
9.09137e+70
9.09137e+70
9.09137e+70
9.09137e+70
-0.251483
9.09137e+70
9.09137e+70
-0.0958051
9.09137e+70
0.019778
9.09137e+70
9.09137e+70
0.0388404
9.09137e+70
9.09137e+70
0.180729
-0.131459
9.09137e+70
0.19646
-0.434429
-0.251744
0.0045318
0.0791606
-0.313056
-0.157623
-0.337352
0.391737
-0.125702
0.258368
-0.383406
0.181186
0.1632
-0.186168
0.530859
-0.0421281
-0.283688
0.113626
-8.99017e+70
-8.99017e+70
-0.085276
0.232977
0.153839
-0.453193
-0.0842084
-0.539384
0.252855
0.260665
-0.168385
-0.414696
0.268443
-0.435531
0.102111
0.025707
-8.99017e+70
-0.372741
0.385095
0.0501015
0.0163001
-8.99017e+70
-8.99017e+70
-0.540255
-0.0926631
-0.00246326
-0.23343
-0.43786
-8.99017e+70
-0.308348
-8.99017e+70
-8.99017e+70
-0.0366502
-8.99017e+70
0.0467136
0.0409394
-0.17197
-8.99017e+70
-8.99017e+70
0.172281
-0.0306723
-0.311077
-8.99017e+70
-0.145174
0.157803
-0.0792493
0.0833449
0.482628
0.165644
0.0643871
0.0542365
0.137749
-0.407228
-0.0301212
-0.304495
0.194025
-0.272979
0.337672
-0.457921
-0.430495
-0.331681
0.210654
-0.171852
-8.99017e+70
-8.99017e+70
-0.0774912
-8.99017e+70
-8.99017e+70
-8.99017e+70
-8.99017e+70
0.361148
-8.99017e+70
-8.99017e+70
-8.99017e+70
-8.99017e+70
-8.99017e+70
0.117061
-8.99017e+70
-8.99017e+70
-8.99017e+70
-8.99017e+70
-0.125527
0.166316
-8.99017e+70
-8.99017e+70
-8.99017e+70
-8.99017e+70
-8.99017e+70
-0.485334
-8.99017e+70
-0.503745
-8.99017e+70
-8.99017e+70
-8.99017e+70
-8.99017e+70
-8.99017e+70
-8.99017e+70
-0.223761
-8.99017e+70
0.0415878
-8.99017e+70
-8.99017e+70
-0.0188435
0.307574
-8.99017e+70
0.0901684
-8.99017e+70
-8.99017e+70
-8.99017e+70
0.0497222
0.421997
-0.116583
-0.226995
-8.99017e+70
-0.0504736
-8.99017e+70
-0.46818
-8.99017e+70
-0.523129
0.241448
-8.99017e+70
-8.99017e+70
-8.99017e+70
0.175675
-8.99017e+70
-8.99017e+70
-8.99017e+70
-8.99017e+70
-8.99017e+70
-8.99017e+70
-8.99017e+70
0.343889
-8.99017e+70
-8.99017e+70
0.202601
-8.99017e+70
-0.177008
-8.99017e+70
-8.99017e+70
-0.0470307
-8.99017e+70
-8.99017e+70
0.0533861
-1.18987
-8.99017e+70
-0.0107101
0.219698
-0.236688
0.0566217
0.0694172
-0.198529
0.102904
0.26379
-0.249919
0.209905
-0.330766
0.112472
-0.0998503
-0.35229
0.0806763
-0.0349636
-0.377995
-0.23048
-0.311755
-1.94224e+71
-1.94224e+71
-0.110382
-0.0646341
0.650989
0.198994
0.217903
-0.154497
0.236648
0.377472
0.142242
0.0975391
0.186672
0.0292802
-0.33571
-0.118252
-1.94224e+71
-0.0257248
0.0429658
-0.0396073
-0.0765715
-1.94224e+71
-1.94224e+71
0.232809
0.152626
-0.136899
-0.455873
-0.10306
-1.94224e+71
0.669304
-1.94224e+71
-1.94224e+71
0.33253
-1.94224e+71
-0.302355
0.0472386
0.0175771
-1.94224e+71
-1.94224e+71
0.0395887
0.0302983
-0.00479656
-1.94224e+71
0.167374
-0.288585
0.0521262
0.0726457
-0.238373
-0.258192
-0.166549
-0.0624126
-0.0827899
-0.149025
-0.187058
-0.0069185
0.00178468
-0.22984
-0.42236
-0.0627549
-0.026034
-0.205007
-0.0670625
-0.254642
-1.94224e+71
-1.94224e+71
-0.130077
-1.94224e+71
-1.94224e+71
-1.94224e+71
-1.94224e+71
-0.173879
-1.94224e+71
-1.94224e+71
-1.94224e+71
-1.94224e+71
-1.94224e+71
-0.456306
-1.94224e+71
-1.94224e+71
-1.94224e+71
-1.94224e+71
0.152834
-0.328471
-1.94224e+71
-1.94224e+71
-1.94224e+71
-1.94224e+71
-1.94224e+71
-0.355275
-1.94224e+71
-0.136569
-1.94224e+71
-1.94224e+71
-1.94224e+71
-1.94224e+71
-1.94224e+71
-1.94224e+71
-0.0356196
-1.94224e+71
-0.613485
-1.94224e+71
-1.94224e+71
-0.10447
-0.576161
-1.94224e+71
-0.559828
-1.94224e+71
-1.94224e+71
-1.94224e+71
0.000205053
0.226174
0.170874
0.201831
-1.94224e+71
-0.500487
-1.94224e+71
-0.274869
-1.94224e+71
-0.288791
-0.471478
-1.94224e+71
-1.94224e+71
-1.94224e+71
0.0417043
-1.94224e+71
-1.94224e+71
-1.94224e+71
-1.94224e+71
-1.94224e+71
-1.94224e+71
-1.94224e+71
-0.445426
-1.94224e+71
-1.94224e+71
-0.292506
-1.94224e+71
-0.152012
-1.94224e+71
-1.94224e+71
0.233143
-1.94224e+71
-1.94224e+71
0.0181894
-3.5203
-1.94224e+71
-0.526416
-0.0437818
-0.117974
0.0480681
-0.355282
0.111897
-0.492226
0.297219
-0.302858
-0.112094
0.00906858
-0.236278
0.0713968
-0.268859
0.365984
-0.0614172
0.246228
-0.13779
-0.479418
-7.59579e+72
-7.59579e+72
-0.0222777
-0.45782
-0.506431
-0.307105
-0.252595
0.214116
-0.388294
-0.0550595
-0.307345
-0.211524
-0.449607
-0.0786018
0.359679
0.108021
-7.59579e+72
-0.565241
-0.217738
0.436342
-0.399333
-7.59579e+72
-7.59579e+72
-0.301215
0.106266
-0.35209
-0.529347
-0.135562
-7.59579e+72
0.0211609
-7.59579e+72
-7.59579e+72
-0.0124694
-7.59579e+72
-0.239236
0.201594
-0.26245
-7.59579e+72
-7.59579e+72
-0.230375
-0.290504
0.173844
-7.59579e+72
-0.0215847
0.278818
0.347362
0.137416
-0.399918
0.0851195
0.227159
-0.233248
0.305775
-0.0704664
0.216509
-0.238193
-0.550433
-0.333912
-0.297063
-0.440626
-0.313529
0.266172
-0.362179
0.0380456
-7.59579e+72
-7.59579e+72
-0.304067
-7.59579e+72
-7.59579e+72
-7.59579e+72
-7.59579e+72
-0.0222537
-7.59579e+72
-7.59579e+72
-7.59579e+72
-7.59579e+72
-7.59579e+72
-0.210293
-7.59579e+72
-7.59579e+72
-7.59579e+72
-7.59579e+72
0.182568
-0.545242
-7.59579e+72
-7.59579e+72
-7.59579e+72
-7.59579e+72
-7.59579e+72
0.0864783
-7.59579e+72
-0.324968
-7.59579e+72
-7.59579e+72
-7.59579e+72
-7.59579e+72
-7.59579e+72
-7.59579e+72
-0.580819
-7.59579e+72
0.114106
-7.59579e+72
-7.59579e+72
0.0913113
0.334374
-7.59579e+72
0.327453
-7.59579e+72
-7.59579e+72
-7.59579e+72
0.0584675
0.0533288
0.126499
-0.44799
-7.59579e+72
-0.543067
-7.59579e+72
-0.0536833
-7.59579e+72
-0.0615478
-0.407549
-7.59579e+72
-7.59579e+72
-7.59579e+72
0.0748699
-7.59579e+72
-7.59579e+72
-7.59579e+72
-7.59579e+72
-7.59579e+72
-7.59579e+72
-7.59579e+72
-0.642907
-7.59579e+72
-7.59579e+72
-0.230687
-7.59579e+72
0.07469
-7.59579e+72
-7.59579e+72
-0.0571737
-7.59579e+72
-7.59579e+72
-0.520242
-0.146412
-7.59579e+72
-0.404589
-0.256866
-0.0595282
-0.140544
0.0775009
-0.236973
-0.212928
0.0689856
-0.114803
-0.311453
-0.108805
0.0674081
-0.018563
0.243323
0.0887638
0.197696
-0.514913
-0.173476
-0.49555
-3.89531e+70
-3.89531e+70
0.111504
0.152672
0.664957
0.122647
-0.00382383
-0.366376
0.0999008
-0.228487
-0.658616
-0.214646
-0.091869
0.226667
-0.388219
0.28873
-3.89531e+70
0.0104767
-0.367017
0.259654
-0.0386544
-3.89531e+70
-3.89531e+70
0.473533
-0.123514
0.19713
0.0394483
-0.0155841
-3.89531e+70
0.391449
-3.89531e+70
-3.89531e+70
-0.0143731
-3.89531e+70
0.249445
-0.183962
0.0736823
-3.89531e+70
-3.89531e+70
-0.265514
-0.0835431
0.284455
-3.89531e+70
0.0513896
-0.1832
-0.302471
-0.318262
-0.0906873
-0.117729
-0.215546
-0.0190358
-0.120974
0.427678
-0.140788
-0.373639
-0.417065
-0.201088
-0.275621
-0.157858
0.38512
0.294465
-0.383536
0.337274
-3.89531e+70
-3.89531e+70
-0.19452
-3.89531e+70
-3.89531e+70
-3.89531e+70
-3.89531e+70
-0.148584
-3.89531e+70
-3.89531e+70
-3.89531e+70
-3.89531e+70
-3.89531e+70
-0.144856
-3.89531e+70
-3.89531e+70
-3.89531e+70
-3.89531e+70
-0.469843
0.150491
-3.89531e+70
-3.89531e+70
-3.89531e+70
-3.89531e+70
-3.89531e+70
-0.55681
-3.89531e+70
-0.294386
-3.89531e+70
-3.89531e+70
-3.89531e+70
-3.89531e+70
-3.89531e+70
-3.89531e+70
-0.115581
-3.89531e+70
0.106633
-3.89531e+70
-3.89531e+70
-0.0856623
-0.472803
-3.89531e+70
0.0438183
-3.89531e+70
-3.89531e+70
-3.89531e+70
-0.337437
-0.448295
-0.156272
-0.425608
-3.89531e+70
-0.230636
-3.89531e+70
-0.121792
-3.89531e+70
0.448787
-0.0383018
-3.89531e+70
-3.89531e+70
-3.89531e+70
0.263323
-3.89531e+70
-3.89531e+70
-3.89531e+70
-3.89531e+70
-3.89531e+70
-3.89531e+70
-3.89531e+70
0.035843
-3.89531e+70
-3.89531e+70
0.215306
-3.89531e+70
-0.395633
-3.89531e+70
-3.89531e+70
-0.136957
-3.89531e+70
-3.89531e+70
0.0848454
-2.84241
-3.89531e+70
-0.12145
-0.013609
0.121307
-0.243666
-0.281403
-0.444337
0.12173
-0.230497
-0.484611
-0.0166095
-0.0190886
0.0913405
-0.363228
-0.0847676
-0.58264
-0.263441
0.0377669
-0.0180374
-0.121118
-4.44318e+70
-4.44318e+70
0.0983493
0.363636
-0.623478
-0.460163
-0.147107
-0.359175
0.0217792
-0.463096
0.187781
-0.0582117
-0.362284
-0.240881
-0.48222
0.0486448
-4.44318e+70
-0.0643513
-0.363502
-0.0311229
-0.0974251
-4.44318e+70
-4.44318e+70
-0.212254
-0.291836
-0.123341
0.130932
-0.320308
-4.44318e+70
-0.125566
-4.44318e+70
-4.44318e+70
-0.0909812
-4.44318e+70
-0.00183698
-0.517731
0.235705
-4.44318e+70
-4.44318e+70
-0.417663
0.00812069
-0.274145
-4.44318e+70
0.278488
-0.426584
-0.453561
0.270371
-0.266692
-0.544187
-0.402937
0.00871115
-0.000697981
0.195158
0.0733655
0.110408
0.00212276
-0.493836
-0.237255
-0.279478
-0.0230753
-0.411418
-0.382745
-0.130224
-4.44318e+70
-4.44318e+70
-0.0908586
-4.44318e+70
-4.44318e+70
-4.44318e+70
-4.44318e+70
-0.130772
-4.44318e+70
-4.44318e+70
-4.44318e+70
-4.44318e+70
-4.44318e+70
-0.623452
-4.44318e+70
-4.44318e+70
-4.44318e+70
-4.44318e+70
-0.0716678
-0.308548
-4.44318e+70
-4.44318e+70
-4.44318e+70
-4.44318e+70
-4.44318e+70
0.0921251
-4.44318e+70
0.216104
-4.44318e+70
-4.44318e+70
-4.44318e+70
-4.44318e+70
-4.44318e+70
-4.44318e+70
0.0727867
-4.44318e+70
-0.332569
-4.44318e+70
-4.44318e+70
-0.370334
0.222973
-4.44318e+70
-0.406249
-4.44318e+70
-4.44318e+70
-4.44318e+70
-0.161531
0.213268
0.221299
-0.504189
-4.44318e+70
-0.203028
-4.44318e+70
0.177292
-4.44318e+70
-0.27508
0.00607074
-4.44318e+70
-4.44318e+70
-4.44318e+70
-0.0390449
-4.44318e+70
-4.44318e+70
-4.44318e+70
-4.44318e+70
-4.44318e+70
-4.44318e+70
-4.44318e+70
-0.403649
-4.44318e+70
-4.44318e+70
-0.021217
-4.44318e+70
-0.552205
-4.44318e+70
-4.44318e+70
-0.305594
-4.44318e+70
-4.44318e+70
0.0776026
0.168241
-4.44318e+70
-0.0695301
-0.352494
-0.29708
-0.425205
0.116844
-0.0281902
-0.286142
-0.289912
-0.3507
-0.597209
-0.451102
-0.429726
-0.293601
-0.216147
-0.246125
0.172349
0.104806
0.0995798
-0.488324
-8.69858e+70
-8.69858e+70
-0.318503
-0.364548
-0.180187
-0.156832
-0.0935942
-0.142646
-0.039858
-0.172005
0.0703875
-0.29338
-0.0767024
-0.0426873
-0.0987165
0.0777611
-8.69858e+70
-0.289085
0.270559
-0.343601
-0.0977678
-8.69858e+70
-8.69858e+70
-0.326804
0.200573
0.243021
-0.435583
0.0413737
-8.69858e+70
-0.251754
-8.69858e+70
-8.69858e+70
0.302196
-8.69858e+70
-0.0558429
-0.0389783
-0.151539
-8.69858e+70
-8.69858e+70
0.14568
-0.0175859
0.0648569
-8.69858e+70
-0.262148
-0.00736934
0.0834634
0.0518432
0.107424
-0.0526693
0.30487
-0.298591
-0.432296
0.0568044
-0.0190905
-0.0498207
0.154486
-0.0162464
0.494341
-0.312996
0.450966
-0.0216692
-0.272459
-0.278899
-8.69858e+70
-8.69858e+70
0.450785
-8.69858e+70
-8.69858e+70
-8.69858e+70
-8.69858e+70
0.078402
-8.69858e+70
-8.69858e+70
-8.69858e+70
-8.69858e+70
-8.69858e+70
0.214535
-8.69858e+70
-8.69858e+70
-8.69858e+70
-8.69858e+70
0.119208
0.226908
-8.69858e+70
-8.69858e+70
-8.69858e+70
-8.69858e+70
-8.69858e+70
-0.533622
-8.69858e+70
-0.0243926
-8.69858e+70
-8.69858e+70
-8.69858e+70
-8.69858e+70
-8.69858e+70
-8.69858e+70
-0.5062
-8.69858e+70
-0.128869
-8.69858e+70
-8.69858e+70
0.20389
-0.58994
-8.69858e+70
-0.549413
-8.69858e+70
-8.69858e+70
-8.69858e+70
-0.391654
0.205303
-0.596799
-0.126353
-8.69858e+70
-0.659412
-8.69858e+70
-0.240554
-8.69858e+70
-0.62016
-0.146732
-8.69858e+70
-8.69858e+70
-8.69858e+70
-0.44704
-8.69858e+70
-8.69858e+70
-8.69858e+70
-8.69858e+70
-8.69858e+70
-8.69858e+70
-8.69858e+70
-0.819317
-8.69858e+70
-8.69858e+70
0.14616
-8.69858e+70
-0.00580678
-8.69858e+70
-8.69858e+70
-0.768221
-8.69858e+70
-8.69858e+70
-0.209736
-0.752594
-8.69858e+70
-0.142874
-0.146722
-0.325831
-0.181935
-0.465143
0.223253
-0.176402
0.245211
-0.0784595
-0.361488
-0.233231
0.228616
-0.295236
-0.0766682
-0.324226
-0.0509693
0.0987826
0.312245
-0.413988
6.20355e+71
6.20355e+71
0.178506
0.118098
-0.500627
0.205072
0.0308443
0.153686
-0.13941
-0.149402
0.257311
0.191541
0.235013
-0.238225
-0.0118912
-0.227531
6.20355e+71
-0.0538999
-0.361314
0.171395
0.11
6.20355e+71
6.20355e+71
0.184507
-0.316315
-0.584877
-0.479211
-0.291875
6.20355e+71
-0.663042
6.20355e+71
6.20355e+71
0.35427
6.20355e+71
0.119407
-0.609652
-0.598313
6.20355e+71
6.20355e+71
-0.185718
-0.08524
-0.0440904
6.20355e+71
0.0607143
-0.711316
-0.611815
0.156752
0.0710937
0.236248
0.132223
0.263413
0.117993
-0.23614
0.0395198
-0.0662374
0.110039
-0.730217
0.0853822
0.219649
-0.301476
-0.281684
-0.453111
0.00729792
6.20355e+71
6.20355e+71
-0.328088
6.20355e+71
6.20355e+71
6.20355e+71
6.20355e+71
-0.235254
6.20355e+71
6.20355e+71
6.20355e+71
6.20355e+71
6.20355e+71
-0.317511
6.20355e+71
6.20355e+71
6.20355e+71
6.20355e+71
0.129456
0.233591
6.20355e+71
6.20355e+71
6.20355e+71
6.20355e+71
6.20355e+71
-0.0207913
6.20355e+71
0.728565
6.20355e+71
6.20355e+71
6.20355e+71
6.20355e+71
6.20355e+71
6.20355e+71
-0.0415651
6.20355e+71
-0.0233144
6.20355e+71
6.20355e+71
-0.0116168
-0.0390845
6.20355e+71
0.243457
6.20355e+71
6.20355e+71
6.20355e+71
-0.0608422
0.0315878
-0.0636208
0.225357
6.20355e+71
-0.205132
6.20355e+71
0.346294
6.20355e+71
0.213105
-0.0544807
6.20355e+71
6.20355e+71
6.20355e+71
-0.16993
6.20355e+71
6.20355e+71
6.20355e+71
6.20355e+71
6.20355e+71
6.20355e+71
6.20355e+71
0.176679
6.20355e+71
6.20355e+71
0.553237
6.20355e+71
-0.0878476
6.20355e+71
6.20355e+71
0.232519
6.20355e+71
6.20355e+71
0.0409152
1.35321
6.20355e+71
-0.446823
0.178179
0.0358084
-0.207599
-0.437378
0.0142279
0.0493328
-0.0868923
0.0725198
0.0811035
0.358628
-0.137866
-0.33398
-0.270314
-0.0417666
-0.0632175
-0.00645747
0.433972
-0.18343
-6.4584e+72
-6.4584e+72
0.30629
0.0918617
-0.508295
0.256971
-0.438907
0.229957
0.329307
0.18793
0.290347
0.100891
-0.118055
0.33111
-0.0430378
-0.33816
-6.4584e+72
-0.375216
0.383133
-0.412355
0.236018
-6.4584e+72
-6.4584e+72
0.350113
0.42343
-0.176254
-0.422839
0.152753
-6.4584e+72
0.0663428
-6.4584e+72
-6.4584e+72
0.0294709
-6.4584e+72
-0.440306
-0.148674
-0.248058
-6.4584e+72
-6.4584e+72
-0.387024
-0.222369
-0.465344
-6.4584e+72
-0.04945
-0.374834
-0.489034
-0.30305
0.247256
-0.0918314
0.165756
-0.386122
0.084157
-0.315491
0.0591187
-0.150592
-0.349051
0.302504
-0.0529249
-0.237763
-0.409225
-0.271345
0.35328
0.0953316
-6.4584e+72
-6.4584e+72
-0.455871
-6.4584e+72
-6.4584e+72
-6.4584e+72
-6.4584e+72
-0.203987
-6.4584e+72
-6.4584e+72
-6.4584e+72
-6.4584e+72
-6.4584e+72
-0.0293644
-6.4584e+72
-6.4584e+72
-6.4584e+72
-6.4584e+72
-0.275904
-0.158908
-6.4584e+72
-6.4584e+72
-6.4584e+72
-6.4584e+72
-6.4584e+72
0.172825
-6.4584e+72
0.152133
-6.4584e+72
-6.4584e+72
-6.4584e+72
-6.4584e+72
-6.4584e+72
-6.4584e+72
0.218331
-6.4584e+72
0.229143
-6.4584e+72
-6.4584e+72
-0.0667865
-0.197955
-6.4584e+72
-0.464516
-6.4584e+72
-6.4584e+72
-6.4584e+72
-0.502328
-0.501332
-0.179822
-0.447512
-6.4584e+72
-0.207533
-6.4584e+72
0.28691
-6.4584e+72
0.40709
-0.356368
-6.4584e+72
-6.4584e+72
-6.4584e+72
-0.22406
-6.4584e+72
-6.4584e+72
-6.4584e+72
-6.4584e+72
-6.4584e+72
-6.4584e+72
-6.4584e+72
-0.567471
-6.4584e+72
-6.4584e+72
-0.436794
-6.4584e+72
0.254889
-6.4584e+72
-6.4584e+72
0.156945
-6.4584e+72
-6.4584e+72
-0.118939
-1.07229
-6.4584e+72
-0.063664
-0.205012
0.0708547
-0.0245155
0.235579
-0.287918
-0.497761
0.010538
-0.458602
-0.492871
-0.112453
0.223926
-0.29742
-0.305802
0.217008
-0.42788
-0.122191
-0.231584
0.254852
-2.39297e+70
-2.39297e+70
-0.41607
-0.295071
-0.265759
0.0454172
0.00558186
0.333685
0.0428006
-0.393213
-0.430196
0.269504
-0.348527
-0.118632
-0.489626
-0.399345
-2.39297e+70
-0.261867
0.137304
0.234152
-0.0742949
-2.39297e+70
-2.39297e+70
0.198071
-0.341379
-0.257896
0.182892
-0.526649
-2.39297e+70
0.0320858
-2.39297e+70
-2.39297e+70
-0.423105
-2.39297e+70
0.0204134
0.215131
-0.484564
-2.39297e+70
-2.39297e+70
0.253022
-0.070488
-0.349273
-2.39297e+70
-0.275368
0.0365119
0.00336947
-0.0253959
-0.0654751
0.179013
-0.529821
-0.280169
-0.499222
0.0403516
0.145083
-0.412239
-0.221907
-0.291674
-0.165374
0.115152
0.211211
-0.394499
-0.212336
-0.149728
-2.39297e+70
-2.39297e+70
-0.0906264
-2.39297e+70
-2.39297e+70
-2.39297e+70
-2.39297e+70
-0.0538033
-2.39297e+70
-2.39297e+70
-2.39297e+70
-2.39297e+70
-2.39297e+70
0.0128282
-2.39297e+70
-2.39297e+70
-2.39297e+70
-2.39297e+70
-0.443363
-0.185184
-2.39297e+70
-2.39297e+70
-2.39297e+70
-2.39297e+70
-2.39297e+70
0.0662185
-2.39297e+70
-0.0869818
-2.39297e+70
-2.39297e+70
-2.39297e+70
-2.39297e+70
-2.39297e+70
-2.39297e+70
-0.0108916
-2.39297e+70
-0.330494
-2.39297e+70
-2.39297e+70
-0.039036
-0.0598015
-2.39297e+70
-0.0903492
-2.39297e+70
-2.39297e+70
-2.39297e+70
-0.119239
0.142445
-0.416882
-0.47889
-2.39297e+70
-0.0794843
-2.39297e+70
0.140104
-2.39297e+70
-0.125195
-0.347391
-2.39297e+70
-2.39297e+70
-2.39297e+70
-0.43219
-2.39297e+70
-2.39297e+70
-2.39297e+70
-2.39297e+70
-2.39297e+70
-2.39297e+70
-2.39297e+70
-0.530721
-2.39297e+70
-2.39297e+70
-0.387793
-2.39297e+70
0.258285
-2.39297e+70
-2.39297e+70
-0.0125571
-2.39297e+70
-2.39297e+70
-0.214824
0.0571926
-2.39297e+70
-0.326348
-0.18227
0.254122
0.174673
-0.301397
0.342122
0.325796
-0.210609
-0.174714
0.484385
0.188673
0.319621
-0.187709
-0.166967
0.0499719
-0.306771
0.322134
-0.0674237
0.11124
-1.35733e+74
-1.35733e+74
0.28671
0.241237
-0.273442
0.143902
-0.292808
0.0853415
0.492384
-0.15107
0.219329
0.171242
-0.25471
0.109783
-0.182186
-0.176126
-1.35733e+74
0.0304593
0.13144
0.554651
0.264643
-1.35733e+74
-1.35733e+74
0.329506
-0.192431
0.0234672
-0.313042
0.0588729
-1.35733e+74
0.146793
-1.35733e+74
-1.35733e+74
0.0414439
-1.35733e+74
-0.117406
-0.166428
-0.344514
-1.35733e+74
-1.35733e+74
-0.1404
0.281456
0.138475
-1.35733e+74
-0.108705
0.448317
-0.356372
0.324274
0.423958
0.377452
-0.134442
-0.208542
-0.120011
0.122725
0.351331
0.136342
0.362052
-0.319923
-0.133223
0.335538
0.488469
0.0769506
0.168191
0.417298
-1.35733e+74
-1.35733e+74
0.311378
-1.35733e+74
-1.35733e+74
-1.35733e+74
-1.35733e+74
-0.303079
-1.35733e+74
-1.35733e+74
-1.35733e+74
-1.35733e+74
-1.35733e+74
0.333598
-1.35733e+74
-1.35733e+74
-1.35733e+74
-1.35733e+74
0.149055
-0.467335
-1.35733e+74
-1.35733e+74
-1.35733e+74
-1.35733e+74
-1.35733e+74
0.0639914
-1.35733e+74
0.225118
-1.35733e+74
-1.35733e+74
-1.35733e+74
-1.35733e+74
-1.35733e+74
-1.35733e+74
0.183138
-1.35733e+74
-0.056056
-1.35733e+74
-1.35733e+74
0.152695
-0.528192
-1.35733e+74
0.341474
-1.35733e+74
-1.35733e+74
-1.35733e+74
0.253473
-0.131018
-0.474982
-0.369983
-1.35733e+74
-0.244854
-1.35733e+74
-0.0641866
-1.35733e+74
0.0500385
-0.254543
-1.35733e+74
-1.35733e+74
-1.35733e+74
-0.213109
-1.35733e+74
-1.35733e+74
-1.35733e+74
-1.35733e+74
-1.35733e+74
-1.35733e+74
-1.35733e+74
0.265326
-1.35733e+74
-1.35733e+74
-0.217646
-1.35733e+74
-0.502833
-1.35733e+74
-1.35733e+74
0.0626036
-1.35733e+74
-1.35733e+74
0.502664
1.75216
-1.35733e+74
0.323386
0.0970195
0.0925954
-0.32613
0.174026
0.177972
0.171406
-0.224184
0.393864
-0.155481
-0.0915918
-0.0478302
0.141793
0.484423
-0.327187
-0.0336617
-0.345214
0.195904
0.346378
1.74179e+71
1.74179e+71
0.328083
0.285084
0.461143
0.202275
0.375712
0.116745
0.0430077
-0.235794
0.120381
-0.0848411
0.415817
0.176816
0.20619
-0.107209
1.74179e+71
-0.0196876
0.482857
0.390339
-0.194985
1.74179e+71
1.74179e+71
-0.046883
0.450645
0.0341756
0.29441
0.21521
1.74179e+71
-0.417384
1.74179e+71
1.74179e+71
-0.0539382
1.74179e+71
0.215518
-0.00440188
-0.329516
1.74179e+71
1.74179e+71
0.044441
0.296376
0.0397407
1.74179e+71
0.22315
-0.317996
0.34143
-0.145516
0.062627
0.297351
-0.173333
-0.00491715
0.055316
-0.0819064
0.097763
-0.242626
-0.172823
0.321424
0.458777
0.306808
0.543263
-0.183998
0.199064
0.014871
1.74179e+71
1.74179e+71
-0.0823689
1.74179e+71
1.74179e+71
1.74179e+71
1.74179e+71
0.512662
1.74179e+71
1.74179e+71
1.74179e+71
1.74179e+71
1.74179e+71
0.567698
1.74179e+71
1.74179e+71
1.74179e+71
1.74179e+71
0.177179
-0.276059
1.74179e+71
1.74179e+71
1.74179e+71
1.74179e+71
1.74179e+71
0.574689
1.74179e+71
0.505519
1.74179e+71
1.74179e+71
1.74179e+71
1.74179e+71
1.74179e+71
1.74179e+71
0.163121
1.74179e+71
0.350919
1.74179e+71
1.74179e+71
0.291454
0.360645
1.74179e+71
-0.13451
1.74179e+71
1.74179e+71
1.74179e+71
0.0469457
0.0432826
0.165293
-0.177673
1.74179e+71
-0.210893
1.74179e+71
0.445013
1.74179e+71
-0.436851
-0.40446
1.74179e+71
1.74179e+71
1.74179e+71
-0.374533
1.74179e+71
1.74179e+71
1.74179e+71
1.74179e+71
1.74179e+71
1.74179e+71
1.74179e+71
0.0796321
1.74179e+71
1.74179e+71
0.019239
1.74179e+71
-0.336597
1.74179e+71
1.74179e+71
0.446116
1.74179e+71
1.74179e+71
0.231354
1.02867
1.74179e+71
-0.472703
-0.498821
-0.357928
0.0130925
0.215477
-0.0442566
0.148415
-0.352329
-0.339933
0.00741092
-0.428926
-0.348338
0.0365652
-0.554165
0.0275942
-0.0622928
-0.349382
-0.477703
-0.0840945
-2.42867e+69
-2.42867e+69
-0.238096
0.171292
-0.256295
0.0124039
0.167869
-0.402794
0.00120388
-0.353626
-0.573126
-0.516038
-0.021633
-0.354957
-0.343548
-0.0272794
-2.42867e+69
-0.104411
-0.214191
-0.158204
-0.411678
-2.42867e+69
-2.42867e+69
-0.140084
-0.184962
-0.10721
-0.366998
0.218182
-2.42867e+69
0.145843
-2.42867e+69
-2.42867e+69
0.0990945
-2.42867e+69
-0.28708
-0.368176
-0.435594
-2.42867e+69
-2.42867e+69
-0.111359
-0.213949
0.057269
-2.42867e+69
-0.314196
-0.427924
-0.429815
-0.0123538
-0.143347
-0.329325
0.0217995
-0.383868
-0.356601
-0.28054
0.0870712
-0.341297
-0.0348124
-0.503108
0.0928517
-0.458957
-0.176404
0.0574513
-0.222315
0.0580442
-2.42867e+69
-2.42867e+69
-0.464548
-2.42867e+69
-2.42867e+69
-2.42867e+69
-2.42867e+69
-0.42526
-2.42867e+69
-2.42867e+69
-2.42867e+69
-2.42867e+69
-2.42867e+69
-0.252711
-2.42867e+69
-2.42867e+69
-2.42867e+69
-2.42867e+69
-0.194424
-0.398797
-2.42867e+69
-2.42867e+69
-2.42867e+69
-2.42867e+69
-2.42867e+69
-0.505293
-2.42867e+69
-0.155028
-2.42867e+69
-2.42867e+69
-2.42867e+69
-2.42867e+69
-2.42867e+69
-2.42867e+69
0.0366832
-2.42867e+69
-0.0330608
-2.42867e+69
-2.42867e+69
-0.304047
-0.189099
-2.42867e+69
0.116358
-2.42867e+69
-2.42867e+69
-2.42867e+69
0.10195
-0.0615487
0.0924711
0.10338
-2.42867e+69
-0.615376
-2.42867e+69
0.126293
-2.42867e+69
-0.333334
-0.264537
-2.42867e+69
-2.42867e+69
-2.42867e+69
0.131226
-2.42867e+69
-2.42867e+69
-2.42867e+69
-2.42867e+69
-2.42867e+69
-2.42867e+69
-2.42867e+69
-0.309635
-2.42867e+69
-2.42867e+69
0.0113907
-2.42867e+69
-0.135745
-2.42867e+69
-2.42867e+69
-0.0103817
-2.42867e+69
-2.42867e+69
-0.347188
0.395081
-2.42867e+69
-0.361706
-0.34386
-0.0896123
-0.190291
0.0520191
-0.0266463
-0.0440129
-0.0373037
-0.112827
-0.222116
-0.0352514
-0.238546
-0.1173
0.0249499
-0.0176471
0.342244
-0.0471843
-0.226477
0.104585
-1.18706e+71
-1.18706e+71
-0.133514
0.225951
0.156083
0.00252103
-0.169962
-0.195708
-0.143889
0.214341
0.0751463
-0.105253
0.0982454
0.0435371
-0.318673
-0.311802
-1.18706e+71
-0.0618616
-0.0923768
0.206747
-0.372719
-1.18706e+71
-1.18706e+71
0.106116
-0.0997353
-0.273955
0.637563
0.0241622
-1.18706e+71
0.41209
-1.18706e+71
-1.18706e+71
-0.272587
-1.18706e+71
-0.0582721
-0.00484372
0.165729
-1.18706e+71
-1.18706e+71
-0.184351
-0.0422625
-0.177751
-1.18706e+71
-0.227981
0.300863
0.0600572
0.0420297
0.395387
-0.169802
-0.267689
-0.222733
0.0960831
-0.137114
-0.0789731
-0.181588
-0.421031
-0.024046
-0.116547
0.0499022
-0.195411
-0.134825
-0.125948
-0.274724
-1.18706e+71
-1.18706e+71
-0.751554
-1.18706e+71
-1.18706e+71
-1.18706e+71
-1.18706e+71
-0.0544607
-1.18706e+71
-1.18706e+71
-1.18706e+71
-1.18706e+71
-1.18706e+71
0.256345
-1.18706e+71
-1.18706e+71
-1.18706e+71
-1.18706e+71
-0.383078
-0.179824
-1.18706e+71
-1.18706e+71
-1.18706e+71
-1.18706e+71
-1.18706e+71
-0.0566325
-1.18706e+71
-0.136093
-1.18706e+71
-1.18706e+71
-1.18706e+71
-1.18706e+71
-1.18706e+71
-1.18706e+71
-0.255573
-1.18706e+71
-0.472223
-1.18706e+71
-1.18706e+71
-0.521858
-0.239813
-1.18706e+71
-0.0127887
-1.18706e+71
-1.18706e+71
-1.18706e+71
-0.900184
-0.315919
-0.38331
0.504812
-1.18706e+71
0.0317814
-1.18706e+71
-0.159358
-1.18706e+71
-0.492851
-0.263178
-1.18706e+71
-1.18706e+71
-1.18706e+71
0.0169081
-1.18706e+71
-1.18706e+71
-1.18706e+71
-1.18706e+71
-1.18706e+71
-1.18706e+71
-1.18706e+71
0.0272352
-1.18706e+71
-1.18706e+71
-0.913381
-1.18706e+71
-0.336384
-1.18706e+71
-1.18706e+71
-0.116885
-1.18706e+71
-1.18706e+71
-0.550771
-4.40857
-1.18706e+71
-0.166169
-0.469649
0.302589
0.141288
-0.0428023
-0.445825
-0.0444809
-0.0722944
-0.305937
0.0684814
-0.467707
-0.345002
-0.298265
-0.449622
0.296847
-0.284519
-0.496422
-0.357756
-0.243318
-1.77813e+70
-1.77813e+70
0.187508
0.257455
0.314894
-0.283758
-0.115805
-0.119448
0.244413
-0.0537299
0.310525
-0.518346
-0.471755
-0.423332
0.175996
-0.311007
-1.77813e+70
0.238044
-0.0586637
-0.363213
-0.466646
-1.77813e+70
-1.77813e+70
-0.24784
-0.0445551
0.00322135
0.315771
0.250411
-1.77813e+70
-0.515582
-1.77813e+70
-1.77813e+70
-0.322328
-1.77813e+70
-0.189749
0.0990354
0.266718
-1.77813e+70
-1.77813e+70
-0.245005
0.281382
-0.0140795
-1.77813e+70
-0.231358
-0.0447035
-0.164575
0.0998935
0.0608876
0.33044
-0.339781
-0.439366
-0.015682
-0.148632
-0.508133
0.0929928
0.295049
-0.420346
-0.317741
-0.234645
0.282652
0.256932
-0.139878
-0.311734
-1.77813e+70
-1.77813e+70
-0.177426
-1.77813e+70
-1.77813e+70
-1.77813e+70
-1.77813e+70
-0.376866
-1.77813e+70
-1.77813e+70
-1.77813e+70
-1.77813e+70
-1.77813e+70
0.202795
-1.77813e+70
-1.77813e+70
-1.77813e+70
-1.77813e+70
0.348904
0.356073
-1.77813e+70
-1.77813e+70
-1.77813e+70
-1.77813e+70
-1.77813e+70
-0.130011
-1.77813e+70
-0.219914
-1.77813e+70
-1.77813e+70
-1.77813e+70
-1.77813e+70
-1.77813e+70
-1.77813e+70
0.324109
-1.77813e+70
0.0991524
-1.77813e+70
-1.77813e+70
-0.167274
0.00331287
-1.77813e+70
-0.669979
-1.77813e+70
-1.77813e+70
-1.77813e+70
-0.00926629
0.13983
-0.284498
0.0614878
-1.77813e+70
-0.263559
-1.77813e+70
-0.279912
-1.77813e+70
0.105239
-0.195914
-1.77813e+70
-1.77813e+70
-1.77813e+70
0.220341
-1.77813e+70
-1.77813e+70
-1.77813e+70
-1.77813e+70
-1.77813e+70
-1.77813e+70
-1.77813e+70
0.194263
-1.77813e+70
-1.77813e+70
-0.141688
-1.77813e+70
-0.116436
-1.77813e+70
-1.77813e+70
0.15737
-1.77813e+70
-1.77813e+70
0.300827
-0.392548
-1.77813e+70
-0.474992
-0.440972
-0.39482
0.254676
-0.226483
-0.475182
-0.418818
-0.140124
0.191299
-0.566542
-0.0768167
0.163194
-0.223605
0.189962
-0.151364
-0.189546
0.194553
-0.42735
0.204636
-3.94532e+69
-3.94532e+69
-0.323837
-0.432461
0.225522
0.37116
0.329015
-0.216383
-0.500265
-0.476302
-0.267631
-0.394462
-0.380063
-0.13393
-0.390142
0.305859
-3.94532e+69
0.117247
-0.474552
-0.04748
0.198943
-3.94532e+69
-3.94532e+69
0.148256
0.37312
0.266
-0.444332
-0.222304
-3.94532e+69
-0.106579
-3.94532e+69
-3.94532e+69
0.240368
-3.94532e+69
0.268049
0.02317
-0.262136
-3.94532e+69
-3.94532e+69
-0.344461
0.0581059
0.177754
-3.94532e+69
0.198761
-0.215696
-0.593978
-0.430033
-0.649927
-0.537356
-0.0376372
0.0722961
0.133326
0.10785
-0.462631
0.212064
0.056238
-0.10331
0.183121
-0.296472
0.073123
-0.248836
-0.189287
-0.193482
-3.94532e+69
-3.94532e+69
0.381547
-3.94532e+69
-3.94532e+69
-3.94532e+69
-3.94532e+69
-0.339859
-3.94532e+69
-3.94532e+69
-3.94532e+69
-3.94532e+69
-3.94532e+69
-0.0456718
-3.94532e+69
-3.94532e+69
-3.94532e+69
-3.94532e+69
0.29882
-0.24199
-3.94532e+69
-3.94532e+69
-3.94532e+69
-3.94532e+69
-3.94532e+69
0.0885796
-3.94532e+69
0.331065
-3.94532e+69
-3.94532e+69
-3.94532e+69
-3.94532e+69
-3.94532e+69
-3.94532e+69
0.130817
-3.94532e+69
0.369231
-3.94532e+69
-3.94532e+69
-0.141133
-0.0819327
-3.94532e+69
0.242327
-3.94532e+69
-3.94532e+69
-3.94532e+69
-0.131279
-0.00706021
0.0134669
-0.135702
-3.94532e+69
0.27639
-3.94532e+69
0.0978889
-3.94532e+69
0.358487
0.119016
-3.94532e+69
-3.94532e+69
-3.94532e+69
0.228648
-3.94532e+69
-3.94532e+69
-3.94532e+69
-3.94532e+69
-3.94532e+69
-3.94532e+69
-3.94532e+69
-0.456237
-3.94532e+69
-3.94532e+69
0.0191806
-3.94532e+69
0.0219013
-3.94532e+69
-3.94532e+69
-0.119678
-3.94532e+69
-3.94532e+69
-0.12911
-0.106575
-3.94532e+69
0.124281
-0.199799
-0.415166
-0.399073
-0.269713
0.247781
-0.0859862
0.234148
-0.225564
0.105781
0.0835316
-0.359947
-0.21359
0.234033
-0.441308
-0.227104
0.251689
-0.459176
-0.542672
-1.46904e+71
-1.46904e+71
0.180417
-0.413216
-0.240485
-0.327164
0.0890875
-0.374273
-0.0298295
-0.0888563
0.0886241
-0.193802
-0.339647
-0.0445443
0.0653154
-0.436016
-1.46904e+71
-0.090239
0.233446
-0.100906
0.252656
-1.46904e+71
-1.46904e+71
-0.350383
0.0839942
-0.00764726
-0.148475
0.301253
-1.46904e+71
0.372832
-1.46904e+71
-1.46904e+71
-0.33253
-1.46904e+71
-0.352244
0.157715
-0.144182
-1.46904e+71
-1.46904e+71
0.0805415
-0.316201
0.119797
-1.46904e+71
-0.119588
-0.445096
-0.204375
-0.396537
-0.0440474
0.06948
-0.0757275
-0.397714
0.0730737
-0.436753
-0.453499
0.145957
0.113577
-0.287953
-0.171354
-0.309565
-0.540305
0.207251
-0.0294194
0.0663296
-1.46904e+71
-1.46904e+71
-0.399687
-1.46904e+71
-1.46904e+71
-1.46904e+71
-1.46904e+71
0.176973
-1.46904e+71
-1.46904e+71
-1.46904e+71
-1.46904e+71
-1.46904e+71
0.0765814
-1.46904e+71
-1.46904e+71
-1.46904e+71
-1.46904e+71
-0.324877
-0.458716
-1.46904e+71
-1.46904e+71
-1.46904e+71
-1.46904e+71
-1.46904e+71
0.0228384
-1.46904e+71
-0.451211
-1.46904e+71
-1.46904e+71
-1.46904e+71
-1.46904e+71
-1.46904e+71
-1.46904e+71
-0.235421
-1.46904e+71
-0.0779007
-1.46904e+71
-1.46904e+71
-0.296005
-0.486944
-1.46904e+71
0.110089
-1.46904e+71
-1.46904e+71
-1.46904e+71
-0.51394
0.100226
-0.338216
-0.0709906
-1.46904e+71
0.296632
-1.46904e+71
-0.657121
-1.46904e+71
-0.196985
-0.240896
-1.46904e+71
-1.46904e+71
-1.46904e+71
-0.123612
-1.46904e+71
-1.46904e+71
-1.46904e+71
-1.46904e+71
-1.46904e+71
-1.46904e+71
-1.46904e+71
0.329132
-1.46904e+71
-1.46904e+71
0.128174
-1.46904e+71
-0.393351
-1.46904e+71
-1.46904e+71
-0.626052
-1.46904e+71
-1.46904e+71
0.259634
-0.468323
-1.46904e+71
-1.70126e+71
-7.53992e+74
-2.18205e+72
-3.60223e+71
-1.1937e+73
-1.30912e+72
-4.67743e+74
-8.89498e+71
-7.54992e+74
-2.09517e+71
-7.55208e+74
-3.19053e+69
-2.78823e+71
-2.64345e+70
-2.1946e+70
-5.18265e+71
-8.70071e+73
-1.93981e+67
-4.78443e+70
-1.31847e+71
-7.25751e+74
-1.63009e+71
-7.93042e+71
-7.54837e+74
-4.41264e+71
-1.2336e+71
-9.33909e+72
-5.62401e+70
-2.80195e+70
-6.19554e+70
-6.84344e+74
-1.44461e+73
-1.51807e+70
-1.53627e+74
-7.54523e+74
-1.35259e+69
-4.97898e+70
-3.38188e+70
-1.86976e+70
-1.18968e+71
-1.18968e+71
